-0.1203412339091301 -0.2447570264339447 0.03994859382510185 0.691175639629364 -2.6322498321533203 0.08880562335252762 -5.152141571044922 0.007879361510276794 0.1062202900648117 1.2263299226760864 -5.339892864227295 -0.37996500730514526 0.20177429914474487 -0.20474489033222198 0.021535512059926987 -0.4796147644519806 0.04530826210975647 -2.601245641708374 -0.014352705329656601 -4.731845378875732 -0.17017284035682678 -0.020272186025977135 -0.3809877932071686 -0.48589086532592773 0.07978571951389313 -0.6591262817382812 -0.38501882553100586 -0.2245701402425766 0.0485222265124321 -2.49001407623291 0.1524273306131363 -8.155805587768555 0.30697494745254517 -0.1761712282896042 -0.43431615829467773 -0.047462914139032364 -4.306748867034912 0.2994685173034668 0.7511005997657776 -0.984392523765564 -0.09369954466819763 -0.26748624444007874 -0.09401984512805939 -0.248387411236763 0.10550808906555176 -5.861668109893799 -0.029932348057627678 -1.1887120008468628 -6.22012186050415 0.03968987241387367 0.031247783452272415 -1.423054814338684 -1.5955603122711182 -1.191473364830017 0.032291166484355927 -0.00776671664789319 0.0978846326470375 -0.02758246287703514 0.2111467868089676 -0.7220910787582397 -0.2763734757900238 -1.1832126379013062 0.08912476897239685 -0.00953483022749424 -0.07743267714977264 0.00862850621342659 -1.471948504447937 -0.9984580874443054 0.1606406420469284 0.4068066477775574 -0.08596395701169968 0.3374994993209839 0.13616685569286346 -5.2119550704956055 -0.09465575963258743 0.16961389780044556 0.35308560729026794 0.23883379995822906 -3.8229575157165527 -0.5565024614334106 -0.29523956775665283 0.004588392097502947 -0.3889390826225281 -2.4319398403167725 0.2541346549987793 0.12165645509958267 -1.0685492753982544 0.39423438906669617 -0.3317204713821411 0.07725104689598083 -0.2930716276168823 0.43728742003440857 0.2766636610031128 4.332916736602783 -6.2181830406188965 0.1769210398197174 2.525540351867676 -1.2968639135360718 1.2438369989395142 -0.27952489256858826 -0.0024387084413319826 -2.596989154815674 1.0997415781021118 -0.07336792349815369 -0.17879699170589447 -1.2134040594100952 0.05833039432764053 -5.3903045654296875 -0.04140383005142212 -0.0889519602060318 0.0506804920732975 -0.10646095126867294 0.11506377160549164 -0.08880041539669037 -0.13051703572273254 0.2787597179412842 -0.03142286464571953 -0.04362873360514641 0.22563359141349792 -0.010700454004108906 -0.06165787950158119 1.9507156610488892 0.023966116830706596 -1.837954044342041 -0.02596048079431057 0.5380060076713562 -0.17667996883392334 -2.6923060417175293 0.4905630648136139 -0.043904826045036316 0.3307643234729767 -0.08565493673086166 -0.036892347037792206 -0.07420901954174042 0.01777818240225315 -0.37857764959335327 -5.074696063995361 0.0022314179223030806 -0.10371121764183044 0.12134969234466553 0.11954152584075928 0.1264495551586151 -0.008165511302649975 -0.048496413975954056 1.9450600147247314 -4.829153060913086 0.19593439996242523 -0.008391880430281162 -0.6214867830276489 -0.5288275480270386 -0.19551879167556763 -0.011679599061608315 0.17109891772270203 -0.8251916170120239 2.1690354347229004 -2.0166609287261963 0.024830734357237816 0.29174181818962097 0.060466598719358444 -0.19361363351345062 0.2418012171983719 0.03604137524962425 -0.20033711194992065 2.7766523361206055 0.6923918724060059 -0.14790837466716766 -0.15563532710075378 -3.2934224605560303 0.10292602330446243 0.032685086131095886 -0.2775551378726959 -0.6046457290649414 0.07850819826126099 0.03281395137310028 -0.3320075571537018 -0.33016785979270935 -0.10111103951931 -6.085578918457031 0.1672183722257614 0.4531412422657013 0.80577552318573 0.8460923433303833 0.14464539289474487 0.4029596447944641 0.09959693998098373 0.4060820937156677 -0.07968464493751526 0.1030619740486145 0.6139565110206604 0.23036660254001617 -0.03769948333501816 -2.5355312824249268 -0.1972329467535019 -0.10113775730133057 -0.2343820482492447 0.17670752108097076 -7.772520542144775 1.4353989362716675 0.011589821428060532 0.032764188945293427 0.20753411948680878 -0.0010431928094476461 0.1895655244588852 0.4648151695728302 -0.013298303820192814 0.0022856337018311024 0.09509565681219101 0.5607358813285828 0.39607349038124084 -0.42021608352661133 0.6232450008392334 -0.112029530107975 0.8041127324104309 0.1457732915878296 0.12625634670257568 -0.04714929312467575 0.005951445549726486 -0.8333246111869812 -2.8776602745056152 -0.6343564987182617 -1.0419107675552368 -0.23675528168678284 -0.09163954854011536 1.4454536437988281 0.15079261362552643 1.0681800842285156 -0.0926901325583458 -0.008708042092621326 -0.07209405303001404 -0.23233696818351746 -0.38952913880348206 -0.07462143152952194 -0.4304533898830414 -10.767190933227539 1.5243914127349854 -2.763387441635132 0.1921175718307495 0.9518253207206726 -0.002204809570685029 0.40173742175102234 -1.8195700645446777 0.5569099187850952 -0.47759491205215454 -0.07615210115909576 -0.29509416222572327 -1.623429775238037 0.1649361401796341 -0.02035781554877758 -0.19126500189304352 0.10237997025251389 -0.7615728378295898 -0.0015103156911209226 -0.02634565345942974 -0.2577068507671356 0.04181647300720215 0.0024394600186496973
0.01723691076040268 0.0838429182767868 -0.03012882173061371 -0.007355513051152229 0.17289793491363525 -0.10665236413478851 0.5201870799064636 -0.018067166209220886 -0.10545983165502548 -4.6315693855285645 1.5388076305389404 -1.0582904815673828 -0.22363096475601196 0.11582963168621063 -0.022266941145062447 -0.01922953501343727 0.13872584700584412 -5.818199634552002 -0.042083729058504105 0.6000495553016663 -0.5555901527404785 0.0009022104204632342 -0.40678924322128296 -0.39065584540367126 -0.038811277598142624 -1.4551070928573608 0.4326806366443634 -0.18105024099349976 0.04185764864087105 -0.06105061620473862 -0.048967208713293076 -1.279611587524414 -0.007891234010457993 0.028391504660248756 0.3334398865699768 -0.8501893281936646 -0.010079010389745235 -0.0966288149356842 0.8171551823616028 0.1673397570848465 -0.33571645617485046 -0.016022128984332085 0.04222157597541809 -0.20033954083919525 0.08407962322235107 -0.1952795833349228 -0.0271404217928648 0.7440113425254822 0.1472354680299759 0.01722952164709568 0.008468320593237877 -2.1789140701293945 -0.14041896164417267 1.0266762971878052 -0.07232873141765594 -0.05510401725769043 -0.3517358601093292 -0.019853079691529274 0.29095640778541565 0.20981112122535706 0.031545042991638184 0.22461958229541779 0.05636856332421303 0.08998999744653702 -0.13424360752105713 0.029228774830698967 -0.48501357436180115 -0.5602768659591675 0.04430783540010452 0.4223647713661194 0.06289250403642654 0.03602403774857521 0.19644224643707275 0.07645539939403534 -0.08888902515172958 0.09107154607772827 0.28585800528526306 0.008453386835753918 0.8168726563453674 -0.18032068014144897 -0.41062864661216736 -0.0005459410022012889 -0.07750361412763596 -2.335482597351074 0.006045258138328791 -0.006902236957103014 -1.1954869031906128 -0.1608031690120697 0.07018142938613892 0.09899849444627762 -0.7327235341072083 0.17830604314804077 -0.4446050226688385 -0.26105472445487976 0.1429111361503601 0.2003047615289688 1.4237616062164307 1.1822236776351929 -1.0473284721374512 -0.09017205238342285 -0.11679718643426895 0.19581790268421173 -6.519330978393555 -0.0916045531630516 -0.16853168606758118 0.6073964834213257 0.25655877590179443 0.45054730772972107 0.0962752029299736 0.07888957858085632 0.0008161556906998158 -0.214763343334198 0.08335773646831512 -0.17714223265647888 -0.06685423105955124 -0.03414924070239067 -2.735576868057251 -0.02134851925075054 0.13026055693626404 -0.15055307745933533 -0.039230965077877045 0.2451719045639038 -0.02509290724992752 -0.25342774391174316 0.0281530749052763 0.09576958417892456 -0.16837826371192932 0.4144660532474518 0.3011741042137146 -0.02414838597178459 0.04094836860895157 0.07899080216884613 -0.12066221982240677 0.024749571457505226 0.0953497663140297 -0.5413728356361389 -2.5946085453033447 -0.11746937036514282 -0.05714259669184685 0.017969835549592972 -0.1011691689491272 0.09402543306350708 -0.12063828110694885 -0.05116577446460724 0.27588024735450745 -1.0014209747314453 0.051142700016498566 -0.0032926767598837614 0.3543225824832916 0.02592344768345356 0.022434301674365997 0.009051400236785412 0.11124888062477112 0.6609730124473572 2.9872853755950928 0.04164332151412964 -0.05297086387872696 0.1015893891453743 0.035055384039878845 0.08662234246730804 -0.3786763548851013 -0.06873617321252823 0.0957084372639656 1.0495972633361816 0.260998010635376 0.10308555513620377 -0.12192793935537338 -3.0112152099609375 0.02462424524128437 0.007933481596410275 -0.22752030193805695 0.045812446624040604 0.06554927676916122 -0.018437661230564117 -0.24907730519771576 -0.10580865293741226 -0.037339210510253906 0.264486700296402 0.00482517946511507 -0.011401088908314705 -3.325277805328369 -0.11753994226455688 -0.5591250658035278 0.5204417109489441 0.46650978922843933 -0.02206990495324135 0.005611700471490622 0.05776543915271759 -0.5021729469299316 0.13919861614704132 0.018263354897499084 0.046372294425964355 -0.018347591161727905 -0.19041287899017334 -0.12396570295095444 -0.07679566740989685 0.5030409097671509 1.7694599628448486 0.21822865307331085 0.0670182928442955 0.06627828627824783 0.03155919164419174 -0.06785449385643005 -0.16056503355503082 0.018044302240014076 -0.033348556607961655 -0.27261602878570557 0.7116501927375793 0.13279742002487183 -0.09128594398498535 0.07521519809961319 0.08412573486566544 -2.712085247039795 0.07133596390485764 -0.055386487394571304 0.165544331073761 -0.01579533889889717 0.09440154582262039 0.011317884549498558 -0.27837175130844116 -1.5156210660934448 -0.15878136456012726 -0.03831891342997551 0.7041025757789612 0.11443143337965012 -1.0760875940322876 -0.17513859272003174 0.3884868025779724 -0.012813636101782322 -0.16386809945106506 -0.08470775932073593 -0.11053156852722168 0.37989649176597595 2.9000635147094727 0.2615032196044922 0.10568305850028992 0.04928110912442207 0.6356050968170166 -0.09130708873271942 0.5270227789878845 0.1576751172542572 0.11016051471233368 -1.1326227188110352 0.018997270613908768 0.3319806158542633 2.0726163387298584 -0.3578188419342041 -0.17833934724330902 -0.07066221535205841 -0.23954229056835175 -0.18983986973762512 -0.058658380061388016 -0.04050426185131073 -0.28549179434776306 -0.20087559521198273 -0.10262908041477203
-0.0036467593163251877 0.029385624453425407 0.01523765828460455 0.05081323906779289 -0.487196683883667 0.022760631516575813 -0.13141071796417236 0.01588943600654602 -0.18429827690124512 0.6010812520980835 0.5340263843536377 -0.30820146203041077 -0.06927050650119781 0.09839049726724625 -0.04247676953673363 0.04367625340819359 0.008925591595470905 -5.422857284545898 -0.5077127814292908 -0.32932746410369873 -0.24841462075710297 0.02442452684044838 -0.22695429623126984 -0.3935779333114624 0.029144423082470894 -0.8202827572822571 0.6891783475875854 0.16714408993721008 0.136381134390831 -0.2340235561132431 -0.03341217711567879 0.31450194120407104 0.031866367906332016 -0.34433647990226746 -0.11063645780086517 -0.6485427618026733 -0.20354895293712616 0.29910820722579956 0.34281283617019653 0.014107435010373592 0.013405234552919865 0.5688212513923645 -0.11560595780611038 -0.1283922791481018 -0.14463843405246735 3.0957236289978027 0.00119821447879076 -0.2074490785598755 -3.936030626296997 0.04055701941251755 0.04048256576061249 -1.2167094945907593 0.25316962599754333 0.2908916473388672 -0.03384806588292122 0.08352174609899521 -0.14073063433170319 0.017544424161314964 0.7865424752235413 0.00934301596134901 0.7630646228790283 -0.2198406308889389 0.04973811283707619 -0.23360177874565125 -0.0685640349984169 0.4656235873699188 -0.2878858745098114 -2.1092336177825928 0.08222419768571854 0.46842119097709656 -0.10333767533302307 -0.06650489568710327 0.06054750084877014 0.14391353726387024 -0.0572335310280323 0.16237448155879974 0.27757999300956726 0.07166607677936554 -1.0007492303848267 -0.36167123913764954 0.006470374297350645 0.004579531494528055 0.2073644995689392 -0.9767154455184937 -0.03204862028360367 -0.0738115981221199 0.4411360025405884 0.575177788734436 -0.15516701340675354 -0.017938099801540375 -0.3607715666294098 0.30716219544410706 -0.1738099902868271 -0.4360363483428955 -0.24387389421463013 0.09157189726829529 -0.16819049417972565 0.48096922039985657 0.6103293895721436 -0.008157093077898026 -0.01405341550707817 1.2363048791885376 0.6841493248939514 0.008782408200204372 0.04472511261701584 0.034974996000528336 0.3457231819629669 -0.141945943236351 0.05436258018016815 -0.06826602667570114 -0.4406459629535675 0.15480031073093414 0.028250059112906456 -0.3467424511909485 -0.12983597815036774 0.09906399250030518 -0.3971629738807678 0.021780695766210556 -0.1051877960562706 -0.038944587111473083 -0.13979625701904297 -0.1360260248184204 0.13660939037799835 -0.1467779576778412 0.030078349635004997 2.1251511573791504 0.22590556740760803 -0.2917158603668213 0.12777435779571533 -0.04656152054667473 -0.21377219259738922 0.12857723236083984 0.043608348816633224 -0.8184475898742676 0.37231966853141785 -0.34994807839393616 -3.0878186225891113 -0.08170394599437714 -0.16131886839866638 -0.6662777662277222 -0.04432648792862892 0.0008996237302199006 -0.01185525581240654 -0.08803069591522217 -0.17446760833263397 -3.7474770545959473 0.0038684660103172064 0.025742575526237488 -0.20071016252040863 0.31601905822753906 -0.08128441125154495 0.006495587062090635 -0.08254067599773407 -1.2374730110168457 1.3415924310684204 0.16020332276821136 -0.009985039010643959 0.027547117322683334 0.07791627943515778 -0.051383741199970245 0.03212456777691841 -0.01572711020708084 -0.03846646472811699 -1.1071528196334839 0.05046938732266426 -0.3002796769142151 -0.19288523495197296 -1.339953064918518 -0.032938502728939056 -0.04594738408923149 -0.7620691657066345 0.003790892194956541 0.21333284676074982 -0.03272949531674385 -0.9641509652137756 -0.040580835193395615 0.02812771685421467 -0.20400594174861908 0.08321510255336761 0.140595942735672 -2.6853699684143066 -0.06694353371858597 -0.48754560947418213 0.7438164949417114 0.03505725413560867 -0.8019188046455383 -0.09624878317117691 0.024709384888410568 0.17098799347877502 -0.07176124304533005 0.045366544276475906 0.3310166001319885 -0.04758767783641815 0.1312619298696518 -0.29622942209243774 0.028232736513018608 0.18352150917053223 1.0587303638458252 0.21884186565876007 0.39313721656799316 -0.05798842012882233 -0.04522908851504326 -0.3637564182281494 -0.15018896758556366 -0.07679583132266998 -0.15940067172050476 0.10403130948543549 0.2763894498348236 0.3958708941936493 -0.01239420473575592 -0.062282368540763855 -0.003174471901729703 -2.4607596397399902 0.06959714740514755 0.002451888984069228 0.07530899345874786 -0.028901323676109314 -0.026700926944613457 0.3592934012413025 0.1437307596206665 0.28887295722961426 -0.6142011880874634 -0.07108357548713684 -0.5894656181335449 0.20026293396949768 0.8035528659820557 -0.08253993093967438 1.8914443254470825 -0.06166675314307213 -0.14286985993385315 0.0776456892490387 -0.109925277531147 -0.41837579011917114 0.039308153092861176 -0.2838499844074249 0.1896832138299942 0.08457589894533157 -0.26367446780204773 -0.040317583829164505 0.457806795835495 -1.6406004428863525 0.4990198612213135 -0.3767513334751129 -0.03846072778105736 -0.5335533618927002 0.8636959195137024 0.25875458121299744 -0.15878529846668243 -0.08986864984035492 0.10114185512065887 0.2781822979450226 -0.06856280565261841 0.03220806643366814 -0.25556933879852295 -0.001452730386517942 -0.0919540673494339
-0.04673213139176369 0.0716812014579773 0.0016714867670089006 -0.01223660260438919 0.13270455598831177 -0.03630764037370682 -0.14230608940124512 -0.03638499230146408 -0.06837689876556396 0.15703605115413666 0.6487302780151367 -0.5580931305885315 -0.08804725110530853 0.055548716336488724 0.029980218037962914 0.7974875569343567 -0.10710737854242325 0.7131890058517456 -0.3820854425430298 0.11851854622364044 0.08398961275815964 0.012679248116910458 0.04170289263129234 -0.4979567527770996 0.2219613790512085 -0.2481118142604828 0.492415189743042 -0.2862527370452881 -0.0436217337846756 -0.04955277964472771 -0.05169104039669037 -0.06717099994421005 -0.05207705870270729 -0.4223073422908783 -0.12194324284791946 -0.015553168021142483 -0.15061010420322418 0.05418384447693825 0.8890898823738098 -0.02246146649122238 0.039388641715049744 -0.594327986240387 -0.07465886324644089 0.024176761507987976 -0.0768745094537735 0.9707279801368713 -0.027606934309005737 -0.07250701636075974 -3.126274347305298 0.005934290587902069 0.044515274465084076 0.2497987449169159 0.13472048938274384 0.2738874852657318 -0.06539938598871231 0.00432997290045023 0.8831285238265991 -0.0013073551235720515 1.2989916801452637 0.07564786076545715 1.1706467866897583 -0.11878592520952225 -0.09215404093265533 -0.004758322145789862 -0.05574147403240204 0.17975257337093353 -0.0636971965432167 -1.9460238218307495 -0.012765863910317421 0.21334773302078247 -0.24243462085723877 -0.03847794979810715 0.07281866669654846 0.017797257751226425 -0.021893048658967018 -0.09669237583875656 0.26554057002067566 -0.019740445539355278 -0.19124920666217804 -0.24076364934444427 -0.01791774481534958 0.0016486670356243849 -0.014612523838877678 -0.0341372974216938 0.0003096473519690335 -0.12156908214092255 -1.6249891519546509 0.9988783597946167 -0.19043481349945068 0.006561356130987406 -0.020062986761331558 -0.06805579364299774 0.03174614906311035 0.16808602213859558 -0.09820805490016937 0.20635467767715454 -3.140636920928955 2.017364025115967 0.6361638307571411 -0.042499758303165436 0.0275257658213377 2.4978983402252197 0.17288091778755188 -0.10188282281160355 -0.07116729021072388 0.11550644040107727 -0.22845841944217682 0.0008594858227297664 -0.06264110654592514 -0.10764063894748688 -0.9784576892852783 1.4049372673034668 -0.14418689906597137 -0.08249761909246445 -0.0011590708745643497 -0.37679505348205566 -0.06353472918272018 0.03660954162478447 -0.03703043609857559 -0.07816804945468903 7.469908450730145e-05 0.08427398651838303 0.06421393901109695 0.006805600132793188 -0.029942702502012253 0.4873026907444 -0.08260540664196014 -0.09402443468570709 0.022666433826088905 -0.0017102237325161695 -0.06604152172803879 0.012725339271128178 0.015690214931964874 -0.8377971649169922 0.09049903601408005 -0.11761120706796646 -3.0533266067504883 -0.007952194660902023 0.006943595129996538 -0.7508141398429871 0.0038828474935144186 0.13146479427814484 0.08273423463106155 -0.04573676735162735 -0.10830962657928467 -3.540395975112915 -0.07689309120178223 -0.028452327474951744 0.253301203250885 0.15919440984725952 0.1270148754119873 -0.06793256849050522 0.05649154260754585 -0.6162957549095154 0.5181443095207214 0.06738308817148209 -0.02704816870391369 -0.26092731952667236 0.45885613560676575 0.010034357197582722 -0.5814984440803528 -0.06496301293373108 -0.021467117592692375 -0.5329561233520508 0.1434260755777359 0.10498810559511185 -0.04991716891527176 -3.747892141342163 -0.04521166905760765 -0.03775783255696297 -1.10086989402771 0.014154798351228237 0.13912662863731384 0.026807909831404686 -0.3636482059955597 0.08120238035917282 -0.10702472925186157 -0.059160519391298294 0.22180995345115662 0.17846982181072235 -1.6942811012268066 -0.059779830276966095 -0.7736468315124512 0.23784863948822021 0.06644701957702637 -0.5339019894599915 -0.09677255898714066 0.07560477405786514 -0.1630447506904602 -0.0021549793891608715 -0.003336384193971753 0.1781225949525833 -0.08791778981685638 0.0517943911254406 -0.4616613984107971 0.0015808801399543881 0.07555995136499405 0.28155916929244995 0.17359937727451324 0.07222626358270645 0.002493275096639991 0.015570146963000298 -2.047273635864258 -0.029977165162563324 -0.06828363984823227 -0.14819954335689545 0.23327046632766724 0.2982577383518219 0.33649513125419617 0.0326492115855217 -0.09620564430952072 -0.0017320330953225493 -1.8531782627105713 0.0633922591805458 -0.10832967609167099 -0.11957750469446182 -0.11548782885074615 0.024831661954522133 0.05930416285991669 -0.05910219997167587 0.11627120524644852 -0.34804028272628784 -0.01751585491001606 0.19525489211082458 0.044576775282621384 0.7608169317245483 -0.18793444335460663 1.3639757633209229 -0.022979838773608208 0.03697499632835388 0.02859015204012394 -0.05934477970004082 -0.23974476754665375 0.32063889503479004 -0.011310485191643238 0.15616919100284576 0.2678535580635071 -0.4814913868904114 -0.13096477091312408 0.645142138004303 0.21565765142440796 0.359895259141922 -0.5409254431724548 0.03660411015152931 -0.4164874255657196 1.1531457901000977 -0.2161700278520584 -0.11735083162784576 0.26195740699768066 -0.05855483561754227 -0.14837467670440674 -0.0003664739488158375 0.059806372970342636 -0.2625025510787964 -0.0042196642607450485 -0.07519768923521042
-0.049901239573955536 0.038406845182180405 0.04865287244319916 -0.031142303720116615 -0.007358457427471876 -0.01205756701529026 -0.028512131422758102 0.027338046580553055 -0.06604498624801636 0.12742725014686584 0.8385762572288513 -0.2199753373861313 -0.052715182304382324 0.1362939476966858 0.01354141440242529 0.6570737957954407 -0.07075805962085724 0.995025634765625 0.22019216418266296 0.23688383400440216 0.0021375056821852922 -0.01911924220621586 0.04402681440114975 -0.47334909439086914 0.2591962516307831 -0.5499932765960693 0.4938027858734131 -0.5486578345298767 0.01904299668967724 -0.002023818204179406 -0.06613863259553909 -0.14831526577472687 -0.029577042907476425 -0.08522535860538483 -0.13459758460521698 0.018928606063127518 0.04317637160420418 -0.02010098658502102 0.8829374313354492 -0.09642516821622849 -0.024643581360578537 0.32730597257614136 -0.049222223460674286 -0.12035232037305832 -0.029546089470386505 0.058997418731451035 0.059446901082992554 0.25850343704223633 -6.644628047943115 -0.017707671970129013 -0.1067466214299202 0.19511771202087402 0.19164533913135529 0.19509218633174896 0.0878276526927948 -0.0684535875916481 1.545053243637085 -0.043970201164484024 1.047326922416687 -0.029362084344029427 1.1206341981887817 -0.40505900979042053 -0.043912310153245926 -0.023928778246045113 0.014390328899025917 0.1756465584039688 0.04319993034005165 -2.3020083904266357 0.0157085582613945 0.10091161727905273 0.06419999897480011 -0.014596307650208473 -0.005018144380301237 0.04510526359081268 -0.14389146864414215 -1.0857038497924805 0.1430089920759201 -0.10331032425165176 -0.020974207669496536 -0.08148961514234543 -0.016977787017822266 0.067331962287426 -0.01096929982304573 0.12093617767095566 -0.00898266863077879 -0.03882836177945137 -2.5660412311553955 1.2893657684326172 0.09445802122354507 0.13053148984909058 -0.12288104742765427 0.022974738851189613 0.042293716222047806 0.08503295481204987 -0.2600005567073822 0.05713062733411789 -3.712338447570801 2.0519254207611084 -0.08740711212158203 -0.03869331628084183 -0.03888785094022751 -0.7694146633148193 0.04484551399946213 0.051576610654592514 0.10528194904327393 0.29500359296798706 0.028399525210261345 -0.047475628554821014 0.19096645712852478 -0.004759600851684809 -1.21696138381958 2.488409996032715 -0.02593345195055008 -0.14464035630226135 0.07189436256885529 -0.980376124382019 -0.12331544607877731 -0.0051451800391077995 -0.1143568754196167 -0.05157526582479477 0.014505879953503609 0.01541554369032383 0.01281447522342205 0.01164880022406578 0.013846260495483875 0.7637588977813721 -0.07948554307222366 -0.05404675006866455 0.1503203809261322 -0.0006521286559291184 -0.10005390644073486 0.011910666711628437 -0.01143298577517271 -0.10419698059558868 0.37861907482147217 -0.23715010285377502 -2.6526200771331787 0.023649660870432854 0.07886716723442078 -0.2930767834186554 0.07374948263168335 0.14389410614967346 0.04594285413622856 -0.06099522486329079 -0.20120331645011902 -1.8230630159378052 0.0009427412296645343 0.017689669504761696 -0.1393951028585434 0.17915001511573792 -0.01788238435983658 0.003416597843170166 0.06914884597063065 -0.2985457479953766 0.44480228424072266 0.013517165556550026 -0.011614471673965454 -0.17792515456676483 0.23774394392967224 0.005199778825044632 -0.31943827867507935 -0.04349135607481003 0.10102773457765579 -0.3152969181537628 -0.20653638243675232 0.1586618572473526 -0.16040262579917908 -2.5200533866882324 -0.1320650428533554 -0.015988746657967567 -1.0226070880889893 -0.009876804426312447 0.1263076215982437 -0.06217750534415245 -0.48219218850135803 -0.203710675239563 -0.07099292427301407 -0.0438804067671299 0.06481108069419861 0.24567200243473053 -0.5636411905288696 0.12642733752727509 -0.4703975021839142 0.320009708404541 0.09459855407476425 -0.4067324101924896 -0.011284352280199528 0.0008513650973327458 0.005809536203742027 -0.017940666526556015 -0.1304200291633606 0.08441337943077087 -0.07866702228784561 -0.009094675071537495 -0.09532009065151215 -0.07458727806806564 0.16615627706050873 0.07265035808086395 0.10113486647605896 0.09115812927484512 0.004330345895141363 -0.009391868487000465 -1.993922233581543 -0.11650251597166061 -0.05475257337093353 -0.13679058849811554 0.2493739128112793 0.2813965380191803 0.4216393530368805 0.06172066554427147 0.04857524111866951 0.032420847564935684 -0.43458375334739685 -0.010444189421832561 -0.09350147843360901 0.0742010623216629 0.054298076778650284 -0.007032143417745829 -0.06378047168254852 0.09959731251001358 0.18258267641067505 -0.1769445389509201 -0.040092334151268005 0.29941102862358093 -0.0922783613204956 0.8842595219612122 -0.12454130500555038 1.0600764751434326 0.00887609925121069 0.44242656230926514 -0.04553335905075073 -0.02839662879705429 -0.020884893834590912 0.04299693554639816 -0.42193788290023804 0.13780979812145233 0.031956229358911514 -0.6987489461898804 -0.012893819250166416 0.6379632353782654 -0.15541116893291473 0.2901266813278198 -0.7554304003715515 0.024376748129725456 -0.1375732719898224 1.4005168676376343 0.2002531886100769 -0.2827470004558563 -0.04078967124223709 0.0029415495228022337 0.037747882306575775 -0.01819598861038685 0.037669602781534195 -0.2874588668346405 -0.1893988698720932 -0.01265691313892603
-0.029869575053453445 0.07488887012004852 -0.18156486749649048 -0.01644514687359333 -0.029085639864206314 0.046758439391851425 -0.09070602059364319 0.04125332832336426 -0.18135778605937958 0.1766856163740158 0.7088911533355713 -0.6588099598884583 -0.39618489146232605 0.6324173212051392 -0.0059247747994959354 0.34355103969573975 -0.11600833386182785 1.677436113357544 0.023186836391687393 0.04948969557881355 0.008960327133536339 0.02853752300143242 -0.08989634364843369 -0.5377036333084106 0.07868047803640366 0.8759410381317139 1.194478988647461 -1.0712376832962036 0.09543152153491974 -0.02418339252471924 0.06578437983989716 0.05041809007525444 -0.03535759449005127 -0.18601268529891968 -0.08027328550815582 -0.010435715317726135 0.005652050953358412 0.40736284852027893 0.26335474848747253 0.06864847242832184 0.03909416124224663 -0.5606278777122498 -0.05285700410604477 -0.0096960524097085 0.04293891787528992 -0.2570366859436035 -0.04867579787969589 -0.315630704164505 -0.17511028051376343 -0.05270020291209221 0.04438483342528343 -0.0031338694971054792 0.23565667867660522 0.21506787836551666 -0.017581382766366005 -0.35739386081695557 3.931872606277466 -0.006036061327904463 1.3005796670913696 0.07370423525571823 0.26577329635620117 -0.6143832802772522 -0.1074843779206276 0.11513517796993256 -0.17300786077976227 -0.09193441271781921 -0.3973327875137329 -2.182522773742676 -0.07372120022773743 0.20893169939517975 -0.17693598568439484 -0.04843854159116745 -0.06102873384952545 -0.03992655128240585 -0.08477012068033218 -1.959025502204895 0.2474174052476883 -0.12659083306789398 -0.03487116098403931 0.014583001844584942 -0.7596995830535889 0.06541460007429123 -0.01767241396009922 0.11449103057384491 0.07428951561450958 -0.10442661494016647 0.5841546654701233 1.0968241691589355 -0.0825142189860344 -0.01480625756084919 -0.25705602765083313 0.16247576475143433 -0.0057730902917683125 -0.009725199081003666 -0.7064679265022278 0.23267078399658203 -4.9856061935424805 0.9065136909484863 0.11443062126636505 -0.005160103552043438 0.010343382135033607 2.8906588554382324 0.10392707586288452 0.8401392698287964 -0.010565278120338917 0.23793981969356537 0.1251104176044464 -0.14109158515930176 0.4962040185928345 -0.11534927785396576 -0.6942315101623535 -1.436591386795044 -0.11333778500556946 -0.2602720856666565 0.03693655878305435 -2.0138983726501465 0.14161641895771027 -0.08809477090835571 -0.08904942125082016 0.02469172142446041 0.05698190629482269 -0.3354995548725128 0.1638285219669342 0.027602054178714752 0.021626394242048264 -1.5689971446990967 -0.267534464597702 -0.027003765106201172 0.13720569014549255 0.008056228049099445 0.23278923332691193 0.12639568746089935 0.026050211861729622 0.13236521184444427 0.41923075914382935 0.0524718351662159 -3.9530467987060547 -0.059891220182180405 0.07289217412471771 -0.16247157752513885 0.1575060486793518 0.08380294591188431 -0.16356708109378815 -0.051680788397789 -0.009361658245325089 0.21917684376239777 -0.021259956061840057 0.030453506857156754 -0.10733073949813843 0.22219732403755188 -0.013984487392008305 -0.06394477933645248 -0.052984077483415604 -0.5393280982971191 0.43435001373291016 -0.0020535059738904238 0.09759291261434555 -0.14191080629825592 -1.3512802124023438 -0.0065678698010742664 -0.1995975375175476 -0.08503691852092743 -0.015462633222341537 0.0017615272663533688 -1.9146169424057007 0.03692353516817093 -0.3204762935638428 -0.5445882678031921 -0.057639848440885544 0.010087176226079464 -0.7043555974960327 0.012004080228507519 0.12109721451997757 0.03712715208530426 -0.5380536317825317 0.3640977144241333 -0.09987128525972366 -0.06913461536169052 0.08298137784004211 -0.05869283154606819 -0.06771041452884674 0.011246565729379654 -0.6271989345550537 -1.705392599105835 0.18700721859931946 -0.780946671962738 -0.018517853692173958 0.03754427656531334 0.4397704601287842 -0.056285545229911804 -0.06986276060342789 0.07535605132579803 -0.000125732651213184 0.007362919393926859 -0.24131757020950317 -0.02475566789507866 0.07983595132827759 0.051983922719955444 0.03170054778456688 0.271217942237854 -0.19468703866004944 0.04462990164756775 -0.49468955397605896 0.10299952328205109 -0.044774800539016724 -0.1348291039466858 0.016840916126966476 0.43749767541885376 0.43128982186317444 -0.16448642313480377 0.1800820678472519 0.010067984461784363 0.0028639212250709534 -0.006284820847213268 -0.03635289892554283 -0.11636468023061752 0.9391271471977234 -0.008774638175964355 0.05410538241267204 -0.056408803910017014 0.5582054853439331 0.12437461316585541 -0.12103762477636337 0.824832558631897 -1.1551377773284912 0.6683661937713623 0.15707719326019287 2.2332448959350586 -0.055162619799375534 0.04054773971438408 -0.12556499242782593 -0.06765010952949524 -0.2289987951517105 -0.1742560863494873 -0.03995950520038605 0.18500129878520966 0.13870079815387726 0.24461060762405396 -0.1571529507637024 0.38288262486457825 0.18199767172336578 0.11729954183101654 -0.4382764995098114 0.08507616072893143 -0.2404737025499344 0.8455731868743896 -0.4653899669647217 -0.2194417119026184 0.17342285811901093 -0.0279698483645916 -0.1410333663225174 -0.036953799426555634 -0.017986880615353584 -0.36095282435417175 -0.15080906450748444 -0.06891157478094101
-0.0860561728477478 0.016967127099633217 0.1517890989780426 -0.37504687905311584 0.0008988526533357799 0.015777984634041786 -0.08159676194190979 -0.015443994663655758 0.353329598903656 0.21458497643470764 0.7664193511009216 0.5373837947845459 0.19334925711154938 -2.7429046630859375 -0.00610790029168129 -0.014090138487517834 0.0370083749294281 1.1350045204162598 0.21509554982185364 0.0263336393982172 0.013121058233082294 0.08566254377365112 -0.5492543578147888 -0.2757757902145386 -0.17231497168540955 -0.24464954435825348 3.134890556335449 -3.2380423545837402 -0.04398983716964722 0.06393835693597794 0.07890498638153076 -0.29264506697654724 -0.22000356018543243 -0.04465016722679138 -0.05587995797395706 0.04011349752545357 0.018679453060030937 0.10558364540338516 0.5986594557762146 -0.12998081743717194 -0.0006233362946659327 -0.036059267818927765 0.24020762741565704 0.14790399372577667 -0.08632326126098633 -0.49433889985084534 0.08512294292449951 -0.07602055370807648 1.3778347969055176 0.04175901412963867 -0.03200790286064148 0.05974779650568962 0.13761596381664276 -1.5495725870132446 -0.055084098130464554 0.8032419681549072 0.06837726384401321 -0.049865540117025375 1.353616714477539 -0.11482588201761246 3.01829195022583 -7.154911041259766 -0.12855732440948486 0.3615522086620331 0.03462155535817146 -0.20717711746692657 2.43166184425354 -0.9237537384033203 0.2136113941669464 -0.06377200782299042 -0.054550595581531525 -0.05726812034845352 0.17912407219409943 -0.055947285145521164 0.08671148866415024 -1.8079793453216553 0.5027481913566589 -0.1015406921505928 -0.0037277331575751305 0.0777062177658081 0.5457925200462341 -0.017537517473101616 0.08254753053188324 -0.029358841478824615 0.11113518476486206 0.1622692048549652 -1.9034643173217773 0.1947292983531952 -0.09032566845417023 -0.009297366254031658 0.8659020662307739 0.006760802119970322 -0.5430445671081543 0.032718557864427567 -0.4214358925819397 0.5517356395721436 -3.0171384811401367 0.5871631503105164 -0.17145635187625885 -0.38810715079307556 -0.07437793165445328 -1.346388339996338 0.2696995735168457 2.096799373626709 -0.17546726763248444 0.05832748860120773 0.04890340194106102 -0.17412793636322021 -0.0210894662886858 0.008159583434462547 0.5052539110183716 3.205986738204956 0.0482320711016655 -0.12931227684020996 -0.1352211833000183 -1.9927347898483276 0.8613441586494446 0.1538248360157013 -0.2080097645521164 -0.038959380239248276 0.04069908708333969 0.04803076758980751 0.0005561881116591394 -0.024571502581238747 0.014755125157535076 -4.265312194824219 0.15003547072410583 -0.003136665793135762 0.11944698542356491 0.008684114553034306 -0.719532310962677 0.09088397026062012 -0.1843688040971756 -0.7431209683418274 -4.422457218170166 0.20031970739364624 -3.9559106826782227 -0.054210115224123 0.018619537353515625 -0.2078990340232849 -0.2088422030210495 0.05846477299928665 0.6252151131629944 -0.04421655088663101 -0.14558084309101105 0.010984859429299831 -0.18522053956985474 0.0027414755895733833 0.08215237408876419 -0.1996404528617859 0.0441688671708107 0.031025942414999008 0.4442282021045685 -0.7744864225387573 0.21070393919944763 0.08413165807723999 -0.12057340145111084 0.10877332836389542 -2.272271156311035 -0.0842747837305069 -0.5455254912376404 -0.018156873062253 -0.016443269327282906 0.14018505811691284 -4.923585891723633 0.09346271306276321 -0.0942457988858223 0.31676623225212097 -0.037022665143013 0.035061921924352646 -0.25738582015037537 -0.04823514446616173 0.17801935970783234 -0.008713383227586746 -0.5097128748893738 -0.05913420766592026 -0.16871684789657593 -0.2561749815940857 0.22950975596904755 -0.3470444679260254 0.4932989478111267 0.12065861374139786 -0.1579347401857376 0.0968799814581871 0.13010311126708984 -0.04899122938513756 -0.026511725038290024 -0.07417407631874084 -1.0036275386810303 -0.1479436606168747 -0.04930718243122101 0.3482675552368164 -0.14713695645332336 -0.04416689649224281 -0.4192986786365509 -0.06675492227077484 0.115665964782238 -0.025597870349884033 0.22698143124580383 -0.8126797080039978 -0.04576629400253296 -0.13789495825767517 -0.36097729206085205 -0.03180154412984848 0.02418358251452446 -0.06494754552841187 -0.2402661144733429 0.7962214946746826 0.005378598812967539 -0.07844721525907516 0.017623379826545715 -0.06410279870033264 0.16062422096729279 -0.04460000619292259 0.0007876667659729719 0.023061037063598633 2.0131702423095703 -0.173958882689476 -0.8110030889511108 -0.02918597310781479 -0.01776791922748089 -0.36912816762924194 -0.14866988360881805 0.22793376445770264 0.8690716624259949 0.6413180232048035 0.1179429143667221 1.1800261735916138 -0.08507616817951202 0.3262317478656769 -0.020358527079224586 0.05397700518369675 0.22225221991539001 -0.5249555110931396 0.21224205195903778 0.07624814659357071 0.49401116371154785 0.7767984867095947 0.1048266813158989 0.4263370633125305 -0.3048921525478363 0.025070490315556526 -0.7641189098358154 -0.07552288472652435 -1.153083324432373 1.5596269369125366 1.4027775526046753 0.014963511377573013 -0.1041022464632988 0.0508793368935585 0.07036694139242172 0.011691629886627197 0.07680712640285492 -0.1950783133506775 0.038073811680078506 -0.050631456077098846
0.04834775999188423 -0.0836779996752739 -1.2010700702667236 0.14274008572101593 -0.16168303787708282 0.010870374739170074 0.0004378473968245089 -0.1867363005876541 -0.6785781979560852 -0.05929764732718468 -1.4398154020309448 -3.6297194957733154 -5.02493953704834 0.3012760877609253 -0.005626011174172163 -0.24918007850646973 -0.08597832918167114 -1.0633045434951782 -0.24237187206745148 0.031841181218624115 0.6963715553283691 -0.1415327936410904 -0.0289088636636734 -0.06869200617074966 -0.6191800236701965 -0.6838307976722717 2.098259687423706 -1.3388705253601074 -0.2705913782119751 -0.14462418854236603 0.0917024165391922 0.20459455251693726 0.16818320751190186 0.09794306755065918 0.08474162966012955 -0.009559995494782925 0.10433068871498108 0.7117761373519897 0.7762883305549622 0.10212557017803192 -0.3550742566585541 0.3720146417617798 0.09800604730844498 0.48898863792419434 0.007048675790429115 -0.09767655283212662 -0.11708143353462219 -0.21803919970989227 -4.328588485717773 0.16823871433734894 -0.023991934955120087 0.070676289498806 -1.0591872930526733 -0.21176858246326447 -5.448208332061768 -5.534256458282471 -5.0188374519348145 0.032061439007520676 -0.2826763391494751 -0.0742093026638031 -8.040084838867188 2.909069061279297 -0.1707276701927185 0.0523175485432148 0.003992700483649969 0.10155560076236725 -9.703662872314453 -0.7196667790412903 0.965100884437561 -0.3281257450580597 -0.14392584562301636 0.21930889785289764 -0.06651622802019119 -0.037005554884672165 -3.1534512042999268 1.1909949779510498 -0.057407960295677185 -2.637603521347046 -0.029410526156425476 -0.3090772330760956 -2.3161306381225586 -0.041046142578125 -0.11983654648065567 0.01249410305172205 -0.04666418954730034 -0.15842707455158234 -2.9529223442077637 0.7544039487838745 -0.3598976731300354 0.24743065237998962 1.6576354503631592 -0.32472631335258484 0.655821681022644 -0.02354302629828453 -2.7738797664642334 -3.2031612396240234 -0.5590185523033142 0.8225443959236145 0.3311620056629181 -0.26478859782218933 -0.09826084226369858 1.0642272233963013 -0.13632690906524658 2.0028083324432373 -0.07779451459646225 0.20184364914894104 -0.15985845029354095 0.5557726621627808 -0.6687889099121094 -0.01681247539818287 1.3144325017929077 0.5423843264579773 0.08768194913864136 0.004905792884528637 -4.1935200691223145 0.8239316940307617 1.7220836877822876 -4.329020977020264 -0.4852828085422516 -0.03098336048424244 -0.02383071556687355 1.8305388689041138 0.09068314731121063 0.07668409496545792 0.11466754972934723 -6.78377628326416 0.10998842120170593 -0.6897492408752441 0.07659636437892914 0.005501781590282917 -7.09454345703125 -0.1517813503742218 -0.17807969450950623 -0.27554965019226074 0.5713521242141724 -0.04184938594698906 -5.631020545959473 0.05652495473623276 -0.4641551673412323 0.28861066699028015 -1.3104873895645142 -1.6447703838348389 -4.262126922607422 -0.07919502258300781 -0.09246958792209625 1.0599677562713623 0.1120445728302002 -0.02730143442749977 0.5932421088218689 -0.39982300996780396 -0.033162787556648254 -0.10817869752645493 -7.122690200805664 -1.6854972839355469 -0.4248083531856537 -0.15707547962665558 -1.7267560958862305 1.7467440366744995 -2.675567150115967 0.07161189615726471 -0.1537085622549057 0.01983138546347618 -0.08563553541898727 0.062418993562459946 -1.309847116470337 -0.002908863825723529 -0.08762244880199432 -1.1262208223342896 0.06245449185371399 0.06838308274745941 -0.10700221359729767 0.12008195370435715 0.06306720525026321 0.17093290388584137 -0.3252640664577484 -0.2988056242465973 -0.019377723336219788 0.5170835852622986 0.22878217697143555 0.5770577788352966 -0.2844691276550293 0.0005126845207996666 -0.13692137598991394 0.6134368181228638 -2.90445876121521 -0.08180323243141174 0.2470828890800476 -0.00363326957449317 0.8708356618881226 -0.1151178702712059 -0.06433214247226715 0.03245493769645691 -0.19166333973407745 -0.3625432848930359 -0.9733172655105591 0.2081633061170578 0.11666106432676315 0.0009015682735480368 0.29152143001556396 0.05377247557044029 0.5269489288330078 0.08470327407121658 0.2126854509115219 -0.24427123367786407 0.09210293740034103 -0.0014715308789163828 -0.33273375034332275 0.9058469533920288 0.9413301944732666 -0.589148998260498 0.3408466577529907 -0.05164094269275665 0.1363394558429718 0.135473370552063 0.13294586539268494 0.09536898136138916 2.0384113788604736 0.2705095112323761 2.0627036094665527 -0.827372133731842 0.3557092249393463 -3.3088674545288086 -0.04490062966942787 0.6319639682769775 3.223165512084961 0.29846805334091187 0.13862718641757965 -0.04470038786530495 -0.01305437833070755 -0.1620582789182663 -0.07738284766674042 -0.08814708143472672 0.13663853704929352 -1.061333179473877 0.39703798294067383 -0.2094375193119049 0.588066041469574 0.20030322670936584 0.08998186886310577 0.419577956199646 -1.6171222925186157 -0.14283263683319092 -0.7361738085746765 0.01727861724793911 1.5742939710617065 -3.20438814163208 2.051953077316284 0.20150114595890045 0.051973968744277954 0.3789670765399933 -0.16288773715496063 -0.06262509524822235 -0.1684274524450302 -0.12148181349039078 -1.1441060304641724 0.020107075572013855
-0.18381962180137634 0.018148129805922508 0.0558752715587616 0.07899657636880875 0.2826753556728363 0.07336627691984177 -1.5490883588790894 0.04571734741330147 -0.03032541088759899 0.9045189619064331 0.25264695286750793 -1.362739086151123 -0.0184196587651968 0.1949523240327835 -0.1765124648809433 -0.8919459581375122 -0.03904995322227478 -0.07155674695968628 -0.20316211879253387 0.4622110426425934 0.15231546759605408 -0.04159748554229736 -0.5784292221069336 -0.30418577790260315 0.2312656044960022 0.7878515124320984 0.4203968048095703 -0.106889508664608 0.1235194057226181 -0.719838559627533 -0.051759231835603714 -1.268202781677246 -0.005705477204173803 -0.047241371124982834 -1.7057347297668457 -4.326611042022705 4.069485187530518 -0.2573222815990448 0.4855157732963562 1.008750081062317 -0.3524743616580963 -0.23314587771892548 -0.13636408746242523 -0.09654941409826279 -0.19271686673164368 0.1568627506494522 0.11111970990896225 0.2557731866836548 -0.2670345604419708 -0.036856573075056076 -0.0061742085963487625 -2.9101433753967285 -0.22415827214717865 0.1790751814842224 0.030920609831809998 0.05103381723165512 -0.001538742333650589 0.07843214273452759 0.0485786497592926 -0.08054575324058533 0.1513267457485199 0.2316880226135254 -0.021108530461788177 0.10542037338018417 0.07147306203842163 -0.15510131418704987 0.0015046857297420502 -0.8553986549377441 -0.05596217140555382 0.38621026277542114 -0.12523645162582397 -0.22551336884498596 0.12761205434799194 -2.9227726459503174 0.005417317617684603 0.0975017100572586 0.1614089161157608 0.07211145013570786 -2.2665913105010986 -0.25143206119537354 -0.11267276108264923 -0.11398552358150482 0.2792817950248718 -2.1960127353668213 -0.0812389999628067 0.08623091876506805 0.15519192814826965 0.1480700522661209 -0.0815715417265892 0.04946311190724373 0.06909941136837006 0.31754201650619507 -0.08691060543060303 -4.989645481109619 0.004311961587518454 0.11056473851203918 1.0494647026062012 0.07746918499469757 -1.58433198928833 -0.08580724149942398 0.08431225270032883 0.03759903833270073 0.799307107925415 -0.0045487238094210625 -0.008911642245948315 0.6929638385772705 0.133088618516922 -4.070611476898193 -1.1121283769607544 -0.05827012658119202 -2.0192999839782715 0.10546793788671494 0.04684529826045036 0.017157383263111115 -0.07791285216808319 0.08061262965202332 0.17588040232658386 0.04015141353011131 -0.010137220844626427 0.02016553096473217 -0.1072951927781105 0.31112396717071533 -0.4158371388912201 -3.337562322616577 0.09288633614778519 0.01515091210603714 -0.049062564969062805 0.8514609336853027 -0.9114601612091064 -0.021088523790240288 -0.2653142809867859 0.4029972553253174 -0.047147564589977264 0.4837886393070221 -0.053017884492874146 -0.048791803419589996 0.08492499589920044 -0.006055768579244614 -0.08979076147079468 -0.06577640771865845 -0.16439001262187958 -0.10487544536590576 -0.016514942049980164 -0.07519416511058807 1.6142007112503052 0.11794229596853256 0.009369449689984322 -0.04355160519480705 -2.063441038131714 -0.03292854130268097 -0.11322896182537079 -0.06569100171327591 -0.04160219058394432 -0.03405291214585304 0.5119102001190186 2.270707130432129 -0.10740587115287781 0.054241593927145004 0.1563250869512558 0.4431464672088623 -0.10004653036594391 0.04985108971595764 -0.06630335003137589 2.5399463176727295 -0.26331883668899536 -4.7477126121521 -0.05708950385451317 -0.14076529443264008 0.18002603948116302 0.0007244101143442094 -0.9055880904197693 -3.148228883743286 0.18439264595508575 -0.10667113959789276 -0.27835702896118164 0.5616202354431152 -0.004722521174699068 1.1905453205108643 0.021107682958245277 -0.08582638949155807 -0.15922582149505615 -0.32135307788848877 -0.23117764294147491 0.016939004883170128 0.35952407121658325 -0.19460292160511017 -0.20421017706394196 -0.030775314196944237 -0.4612553119659424 -0.28524649143218994 0.08245522528886795 0.13459806144237518 -0.2289738953113556 -0.0847117081284523 0.25118589401245117 0.08669044822454453 0.42409276962280273 1.8605560064315796 0.12068542838096619 -0.06766580045223236 0.05846361815929413 0.012595699168741703 -1.2217508554458618 -0.04935687035322189 0.07433129847049713 -0.018699420616030693 0.1575251966714859 0.6396503448486328 0.48892050981521606 -0.596196174621582 -3.798828363418579 -0.023788874968886375 0.08168952912092209 0.021773628890514374 0.08136475831270218 0.0941757783293724 0.09044743329286575 -0.3404431641101837 -0.3154626488685608 -0.03236919641494751 -5.365133762359619 -0.2616547644138336 -0.16930264234542847 0.6392108798027039 0.04446787387132645 -0.6811745166778564 -0.06370789557695389 0.0003437319537624717 -0.01949359104037285 0.14729323983192444 0.03130881115794182 -0.059245895594358444 1.1682790517807007 2.317722797393799 -0.8636928200721741 0.18150931596755981 -0.027543598785996437 1.9405285120010376 -0.020693715661764145 0.6012876033782959 -0.262656569480896 0.8019072413444519 -0.4281029999256134 -0.09585079550743103 0.6511617302894592 0.16118352115154266 0.25084730982780457 -0.044422004371881485 -0.024049343541264534 0.20872999727725983 -0.18565306067466736 -0.07439930737018585 0.17783421277999878 -0.054964758455753326 0.009077019058167934 -0.016181711107492447
0.019629409536719322 0.021870223805308342 0.05498993769288063 -0.49166467785835266 -0.016802940517663956 0.08646246045827866 0.3391765356063843 -0.10215166956186295 0.15264971554279327 -4.066033840179443 -1.088482141494751 0.03433968871831894 -0.12481532990932465 0.1930709332227707 0.1212986633181572 -0.890522837638855 0.09679240733385086 -1.0334314107894897 -0.22876673936843872 -0.7555734515190125 -0.16436807811260223 0.060805127024650574 0.44564083218574524 0.30111163854599 0.09462105482816696 -1.1680850982666016 -0.15933287143707275 -0.1436472237110138 0.324607253074646 0.08806447684764862 0.06838719546794891 -7.8235955238342285 -0.012478228658437729 0.42720866203308105 -0.37512120604515076 0.1869654804468155 -0.45917248725891113 -0.9225858449935913 0.6918275356292725 -0.43053334951400757 -0.01642240583896637 0.27470090985298157 0.34314069151878357 -0.06801795959472656 0.19470660388469696 0.015022180043160915 -0.00945199653506279 1.052112340927124 -0.7524855732917786 0.04045066609978676 0.09600267559289932 -2.133143901824951 0.5736725330352783 -0.44948944449424744 0.1765463799238205 -0.057426825165748596 -0.0550079420208931 -0.008149133995175362 -0.008657780475914478 0.025974774733185768 0.0245400108397007 0.153636634349823 -0.12483431398868561 -0.1099914014339447 0.05213720351457596 -6.112656116485596 -0.10630347579717636 -1.9322707653045654 -0.12593458592891693 1.2448875904083252 0.28831660747528076 -0.0035219439305365086 0.39601391553878784 -0.189569354057312 -0.2243921160697937 0.18467552959918976 0.3347296118736267 -0.19204261898994446 -0.003339346731081605 -0.36523616313934326 -0.05643545463681221 0.10813719034194946 0.10852399468421936 -2.0514638423919678 -0.07919322699308395 -0.020472025498747826 0.3564395308494568 -0.401210218667984 0.09260789304971695 0.12598372995853424 -0.7798442244529724 0.24040204286575317 -0.545511782169342 1.2725718021392822 -2.7832283973693848 0.12553220987319946 0.8780500888824463 -0.23240268230438232 0.3265301287174225 0.3003111779689789 -0.1253550499677658 -0.23354746401309967 -4.71442985534668 0.00023613200755789876 -0.13549061119556427 -2.1958541870117188 -0.5798296332359314 -0.9891291260719299 0.6996479034423828 -0.10005492717027664 -4.295941352844238 -0.23017998039722443 0.1474573165178299 0.25181716680526733 0.09675188362598419 0.10275248438119888 0.9026013016700745 -0.053812842816114426 -0.028538905084133148 -0.034967999905347824 -0.04428664594888687 0.9086687564849854 0.07199491560459137 -6.775788642698899e-05 0.052963390946388245 -0.1287425309419632 -0.03859122097492218 -1.0167267322540283 -0.2694834768772125 0.007268245797604322 -0.4834009110927582 0.11208800226449966 0.03222273662686348 -0.6112646460533142 -0.09090884774923325 0.6639714241027832 -0.23954838514328003 -0.0064149112440645695 -0.06172353774309158 -0.4009385108947754 0.054570265114307404 0.029813002794981003 0.10796556621789932 0.02106955647468567 0.11716807633638382 -0.7079334259033203 0.12206266820430756 -0.04256350174546242 -4.547605514526367 -0.29059696197509766 0.058381494134664536 -0.026958419010043144 0.031172988936305046 0.11920157819986343 0.7597485184669495 -0.42100629210472107 0.18598680198192596 -0.14657282829284668 0.018991924822330475 -0.20064523816108704 -0.41057974100112915 0.006735050585120916 -0.043879132717847824 0.1136975809931755 -0.7291994094848633 0.20173527300357819 0.04109455272555351 -0.24072086811065674 0.03363882377743721 0.09287632256746292 0.3127898871898651 -0.316280335187912 0.14824694395065308 -0.07712480425834656 -1.4046013355255127 -0.687396764755249 0.12740986049175262 -1.0176734924316406 -0.002666525077074766 0.023434193804860115 0.3381757140159607 -0.288272500038147 -0.022999631240963936 -0.15644080936908722 0.14739283919334412 -0.15691617131233215 -0.09830478578805923 0.006347469985485077 -0.5457715392112732 -0.03116019442677498 -0.05403715744614601 2.313377618789673 -0.23560911417007446 0.26257526874542236 0.5514488220214844 -0.2757263779640198 -4.918233394622803 0.5249573588371277 -0.11248309165239334 -0.08245939016342163 0.249115452170372 -0.00224910955876112 -1.2620943784713745 0.0257739145308733 0.026449205353856087 -0.11355189234018326 -0.1448599100112915 0.6923443675041199 1.4164475202560425 -0.03725910931825638 0.32741600275039673 0.011002192273736 -0.4121280312538147 0.2824803590774536 -0.30944597721099854 0.20068305730819702 -0.011593694798648357 0.0074792057275772095 -5.8848090171813965 -0.32035031914711 -0.4812198579311371 -0.005060847848653793 -0.06878451257944107 0.8602508306503296 -0.03346985578536987 -0.03790365532040596 -0.011053044348955154 -0.14362141489982605 -0.036435775458812714 0.6030991673469543 -0.21412532031536102 -0.10919193178415298 0.19264887273311615 1.1715878248214722 0.1562756448984146 0.3767985999584198 0.010718697682023048 0.554207980632782 -0.0010503442026674747 0.1513792723417282 1.6603832244873047 0.8739150762557983 -0.645313560962677 0.03832273557782173 1.9258477687835693 -0.5131224393844604 0.46599119901657104 -0.08226905763149261 -0.15083739161491394 -0.051622889935970306 0.039309609681367874 0.0509006530046463 0.031149009242653847 -0.31875258684158325 0.08797778189182281 -0.07721427828073502
-0.04875829070806503 0.04001226648688316 -0.01753770373761654 0.3910030424594879 0.20174339413642883 -0.0034005288034677505 -0.15177756547927856 -0.0003994282160419971 -0.0807974636554718 0.8265325427055359 -0.138536274433136 -0.5338671803474426 -0.15595807135105133 -0.010939525440335274 0.018336933106184006 0.027232227846980095 -0.013975116424262524 0.30301913619041443 0.17103855311870575 -0.20036831498146057 -0.21904268860816956 -0.002058043610304594 -0.07807586342096329 -0.1852867603302002 0.08727219700813293 -0.27640533447265625 -0.1292947381734848 -0.3818759322166443 0.04889325425028801 -0.031385041773319244 -0.05417632684111595 0.4209437072277069 0.06354221701622009 -0.6668254733085632 -0.0524376817047596 -1.6193188428878784 0.020452085882425308 0.06686235964298248 0.7459901571273804 0.00033850944600999355 -0.12256789952516556 -0.031139366328716278 -0.025724301114678383 -0.030736835673451424 -0.002700952347368002 0.036131471395492554 -0.007656254339963198 0.5455853343009949 0.015891635790467262 0.014185292646288872 0.10981613397598267 -0.18197272717952728 0.44231054186820984 0.273853600025177 -0.11569532752037048 -0.04191257432103157 -0.006648937240242958 -0.022952914237976074 0.14131782948970795 -0.01851693168282509 0.18978284299373627 0.16231410205364227 -0.052247773855924606 -0.18064336478710175 0.04618291184306145 -0.7310883402824402 0.08652200549840927 -3.1046950817108154 -0.1090405285358429 0.2152644693851471 -0.013222613371908665 6.97366485837847e-05 0.01724129170179367 -0.08550869673490524 -0.044420383870601654 0.12240127474069595 0.05681680887937546 -0.05011646822094917 -0.0035488903522491455 0.04314124956727028 -0.11699692904949188 0.04148953780531883 0.036243315786123276 -0.2704291343688965 -0.09083854407072067 -0.010382739827036858 -0.03330144286155701 0.6873222589492798 0.04459891840815544 0.08701027184724808 0.05170457810163498 0.023057706654071808 0.024753065779805183 -0.4054279923439026 -0.008810014463961124 0.17247512936592102 0.37607380747795105 -0.23680411279201508 -0.2290254682302475 -0.11518902331590652 -0.022652551531791687 -0.06475487351417542 -0.004960290621966124 0.003219338832423091 0.01956620253622532 -0.10136166214942932 0.04725075140595436 0.009195208549499512 -0.18733879923820496 -0.054709285497665405 -3.7815639972686768 -0.16483819484710693 0.01217575278133154 -0.0005981708527542651 -0.041816260665655136 0.051128894090652466 -0.28268370032310486 -0.037885334342718124 -0.015224960632622242 0.04120951145887375 0.011856318451464176 -0.027658706530928612 -0.23214030265808105 -0.2456623911857605 -0.07201887667179108 0.019719617441296577 0.015585222281515598 0.06447802484035492 -0.24168477952480316 -0.02528952993452549 0.0068174307234585285 0.05987291410565376 0.03292470425367355 -0.23474404215812683 0.189197838306427 -0.1287717968225479 0.012449103407561779 -0.00923951342701912 0.031626857817173004 -0.10453546792268753 -0.04547027125954628 0.0801905170083046 0.04159683734178543 -0.04434613510966301 -0.2166249006986618 0.06193099915981293 0.11864859610795975 0.05066133290529251 -4.631563663482666 0.14091923832893372 -0.030159639194607735 -0.13426192104816437 0.04003423452377319 -0.03730390965938568 -0.04771888256072998 -0.08596059679985046 -0.11326557397842407 -0.13341133296489716 0.20352129638195038 0.0412418507039547 -0.36215564608573914 -0.06403811275959015 -0.03802609071135521 -0.03290245309472084 -0.38623806834220886 -0.4835634231567383 -0.036771368235349655 -0.1372801512479782 -0.10600296407938004 -0.018687967211008072 -0.22520677745342255 0.10264665633440018 0.12029887735843658 0.045884568244218826 -0.2670762240886688 0.10858892649412155 -0.011473480612039566 0.09501499682664871 0.08845823258161545 0.022095175459980965 0.29017579555511475 0.11541210114955902 0.05742166191339493 -0.14528609812259674 0.03441552072763443 -0.4115775525569916 -0.0647490844130516 -0.04442722350358963 0.15669503808021545 -0.12116685509681702 0.005546913016587496 0.4975775182247162 -0.07904568314552307 -0.03460538014769554 -0.28166890144348145 -0.1634286642074585 0.3900863826274872 0.31045740842819214 -0.05883968248963356 0.15939080715179443 -0.01917838677763939 0.01615815795958042 -0.2057102918624878 -0.15026937425136566 -0.1378418505191803 0.027703259140253067 0.0717853531241417 0.008535888977348804 0.3769940435886383 -0.1410500556230545 -0.1330791413784027 0.0493554063141346 -1.0330363512039185 0.08722419291734695 0.0840124636888504 -0.013306139968335629 0.028418904170393944 0.0023452346213161945 -0.3609738051891327 0.07360303401947021 -0.2649356424808502 -0.2220817506313324 -0.0494406521320343 -0.17908751964569092 -0.16511738300323486 0.6801313161849976 -0.14572544395923615 -0.042962200939655304 -0.034220002591609955 0.04976876080036163 0.026678593829274178 -0.11057763546705246 0.38245639204978943 -0.05986091122031212 -0.09398384392261505 0.3128626346588135 0.013211977668106556 -1.6723021268844604 -0.04532812163233757 0.5391659736633301 0.1373138278722763 0.20514151453971863 -0.568821907043457 0.04826744645833969 -0.055029451847076416 -0.07758629322052002 -0.03766031190752983 -0.13779142498970032 -0.01693701185286045 -0.1399851143360138 0.4858405292034149 -0.005382571369409561 0.03542255610227585 -0.4255360960960388 -0.18350790441036224 -0.13383343815803528
0.0037335793022066355 0.06367934495210648 -0.04988059028983116 0.1800139844417572 0.15804921090602875 0.06019120290875435 0.051161058247089386 0.01686830073595047 -0.041004620492458344 -0.056067872792482376 -0.2146301120519638 -0.33050644397735596 -0.025222256779670715 -0.08863364905118942 -0.03918137028813362 0.43313995003700256 0.07918253540992737 -0.2504769265651703 -0.16054898500442505 -0.2114865779876709 -0.036623042076826096 0.09549516439437866 0.12561406195163727 -0.07541338354349136 0.1309175342321396 -0.5371905565261841 -0.20026244223117828 -0.38434359431266785 -0.03157036378979683 -0.004221632145345211 -0.185734361410141 0.16521252691745758 0.12937793135643005 -0.667263388633728 0.03522418066859245 -0.9836944341659546 0.046105239540338516 0.04818666726350784 -0.42071136832237244 -0.06409209966659546 -0.1149512380361557 -0.20559586584568024 -0.0201732125133276 0.03207946568727493 -0.0887170061469078 0.0106987738981843 -0.10052337497472763 -0.3934173882007599 0.00035329957609064877 0.11300252377986908 0.09190917015075684 0.2599542438983917 0.2186022698879242 0.09537915140390396 -0.038846518844366074 0.011999612674117088 0.016477299854159355 0.07392972707748413 0.002897672588005662 -0.09400472044944763 0.46092158555984497 0.3206404745578766 -0.04343671351671219 -0.17347608506679535 0.013083716854453087 -0.30880141258239746 0.2072708159685135 -2.913003921508789 -0.016745664179325104 0.11871261149644852 0.09522943943738937 -0.0626898929476738 -0.020005539059638977 -0.02139676921069622 0.01094385702162981 0.22163885831832886 0.0991998016834259 0.0914488360285759 0.11840949207544327 0.18208159506320953 -0.0850902572274208 -0.05454245209693909 -0.1439758688211441 0.4497634470462799 -0.06946253031492233 0.021189654245972633 0.017789585515856743 -0.08191297948360443 -0.16084441542625427 -0.026383735239505768 0.10212268680334091 -0.025112412869930267 0.12406570464372635 -0.19685253500938416 0.12812520563602448 -0.1561204046010971 0.30492326617240906 -0.17343851923942566 -0.143387570977211 -0.12057596445083618 -0.12156761437654495 0.13978339731693268 0.034609049558639526 -0.1635189801454544 -0.031018495559692383 -0.0719631016254425 -0.7889965176582336 0.04825738072395325 0.2690485417842865 -0.08893273770809174 -3.826240301132202 -0.19192805886268616 0.013155626133084297 -0.10128623247146606 -0.16388607025146484 0.22354470193386078 0.3267080783843994 0.007325408514589071 -0.09365500509738922 -0.06203155592083931 -0.02631939947605133 -0.057858046144247055 0.11507512629032135 -0.14126689732074738 -0.11461030691862106 0.19063879549503326 0.1292024403810501 0.013047371990978718 0.22981414198875427 -0.09286443889141083 0.1266450732946396 -0.1570930927991867 0.08397979289293289 0.37941622734069824 0.2030341923236847 0.35353243350982666 -0.15696704387664795 -0.058165404945611954 0.041584525257349014 0.18434667587280273 -0.025238104164600372 0.05031628906726837 -0.006382569205015898 -0.04098498821258545 0.06636706739664078 -0.23125514388084412 -0.12708701193332672 0.03446558117866516 -4.4534454345703125 0.2794021964073181 -0.03665706887841225 -0.07646189630031586 -0.028726596385240555 0.2759014666080475 -0.2295951545238495 0.012455415911972523 -0.040825217962265015 -0.13305097818374634 0.5119760632514954 0.006857991684228182 0.26935726404190063 0.03212737664580345 -0.005829295609146357 0.08583273738622665 -0.6914554834365845 0.2548917233943939 0.1039530336856842 -0.07171141356229782 -0.08871184289455414 -0.058014966547489166 0.2652936279773712 0.030396971851587296 0.2204020768404007 -0.092875637114048 0.3911341726779938 0.6879913806915283 0.03415723145008087 -0.13841436803340912 0.21837368607521057 0.01714508607983589 0.5918443202972412 -0.02162291668355465 0.46879759430885315 -0.18211670219898224 -0.020571479573845863 0.13743601739406586 0.06660128384828568 0.017282746732234955 0.1260826587677002 -0.1270579993724823 0.06859786808490753 0.2504021227359772 -0.11242491751909256 -0.025660241022706032 0.3825652301311493 0.03497139364480972 0.10373680293560028 -0.15851807594299316 -0.26932111382484436 0.2175193876028061 0.017021147534251213 0.018990283831954002 0.2985270321369171 -0.14257487654685974 -0.030574467033147812 -0.2152608186006546 -0.14979960024356842 0.4666385054588318 -0.1568351686000824 0.16864030063152313 -0.08422466367483139 0.06195072829723358 0.048728685826063156 0.046558961272239685 -0.07626993954181671 -0.12058299779891968 -0.021143557503819466 -0.03779860585927963 -0.10504834353923798 0.25153541564941406 -0.09928131103515625 0.33780092000961304 0.025497907772660255 -0.09314844012260437 0.010501078329980373 -0.05929391458630562 -0.0736037939786911 -0.05529922991991043 -0.12381379306316376 -0.5045183897018433 -0.004671236500144005 0.006663987413048744 0.07138482481241226 0.2571254372596741 -0.5558174848556519 0.03916517272591591 0.2663789391517639 -3.8275277614593506 -0.08797844499349594 -0.1893552988767624 -0.05693047493696213 -0.21643590927124023 0.36401432752609253 0.0374622605741024 -0.07145640254020691 0.06063825264573097 -0.03788513317704201 -0.23567339777946472 -0.2980126738548279 -0.025796158239245415 0.08267857879400253 0.09601448476314545 -0.0977567657828331 -0.5377832651138306 -0.0948660746216774 -0.023154523223638535
-0.014073223806917667 -0.0023248428478837013 -0.03785211592912674 0.024701308459043503 -0.019344288855791092 0.01289032120257616 0.06781931221485138 0.021621011197566986 0.10002686083316803 -0.18676845729351044 -0.07798820734024048 -0.5042814612388611 0.23957163095474243 -0.22449323534965515 0.002528737997636199 0.5245358943939209 -0.1271081268787384 -0.1340538114309311 -0.1744185835123062 -0.1134376972913742 0.13561511039733887 0.04061327129602432 0.13393163681030273 -0.14757533371448517 0.18625526130199432 -0.47061169147491455 -0.2429044246673584 -0.24405179917812347 -0.09725409746170044 0.046021558344364166 -0.059648189693689346 0.0003171894059050828 0.029727283865213394 -0.35306984186172485 0.09591583907604218 -0.34716635942459106 -0.06368572264909744 0.2822055220603943 -0.4713863730430603 -0.05206047371029854 -0.13569803535938263 0.08119084686040878 0.0036642635241150856 0.08441923558712006 -0.12174931913614273 -0.14145204424858093 -0.12179376184940338 -0.3740219175815582 -0.12530799210071564 0.09900587052106857 0.1121564507484436 0.23630653321743011 0.3068888187408447 0.3002672791481018 0.02275712415575981 0.05703340470790863 -0.042152225971221924 -0.06281311810016632 0.01811772771179676 -0.016291659325361252 0.2078743427991867 -0.10905425250530243 -0.24260210990905762 -0.06277073174715042 -0.06290111690759659 -0.08602702617645264 0.4313340485095978 -3.1782615184783936 -0.03110547363758087 0.14548839628696442 -0.2205657660961151 -0.07736510038375854 0.023207902908325195 -0.08299503475427628 -0.06304971873760223 0.14483331143856049 -0.008760287426412106 0.007026984356343746 -0.04713176563382149 0.1944912075996399 0.014524340629577637 0.0010987394489347935 -0.061516690999269485 0.3417297303676605 -0.06392073631286621 -0.012289881706237793 0.010146905668079853 -0.2556593418121338 -0.05470168590545654 -0.018638836219906807 0.3529421389102936 -0.01089379284530878 0.15169082581996918 0.0921366736292839 -0.04072410240769386 -0.057535234838724136 -0.3104760944843292 -0.11209974437952042 -0.10878900438547134 -0.08583810925483704 -0.028002126142382622 -0.09607705473899841 -0.15715059638023376 -0.32703202962875366 -0.038945332169532776 -0.013755167834460735 -0.0843360498547554 -0.222179114818573 0.2703441083431244 -0.07364654541015625 -3.658438205718994 -0.13578206300735474 -0.07688789814710617 -0.2027827501296997 -0.08279117196798325 0.38575905561447144 -0.054643578827381134 0.0458257831633091 -0.07949606329202652 -0.0622498020529747 0.008626126684248447 -0.06847521662712097 0.13442277908325195 -0.18033242225646973 -0.028330804780125618 -0.26608842611312866 0.1722213178873062 -0.04434628039598465 0.30590546131134033 -0.048220451921224594 0.25791287422180176 0.12867888808250427 -0.020282579585909843 0.38657981157302856 -0.2573815882205963 -0.3709353804588318 -0.12848567962646484 -0.08803055435419083 -0.023563411086797714 0.21736691892147064 -0.06329227238893509 -0.018577367067337036 0.051869090646505356 -0.07154041528701782 -0.11995904892683029 -0.117166668176651 -0.18628056347370148 -0.02210821956396103 -3.9346659183502197 0.17175757884979248 -0.020930999889969826 -0.043188899755477905 0.1802314966917038 0.3095970153808594 -0.2123033106327057 -0.07794220000505447 0.11024834215641022 -0.0617331936955452 0.7579001784324646 0.03031822480261326 0.515977144241333 0.046614792197942734 -0.0970044955611229 -0.015260541811585426 -1.1866315603256226 0.039530493319034576 -0.00312285334803164 -0.2766132950782776 -0.14618240296840668 -0.031491510570049286 0.2835107445716858 0.00776769919320941 0.3516679108142853 0.09326246380805969 0.3784378170967102 0.3727620840072632 0.048823967576026917 -0.10980924218893051 0.07097632437944412 -0.011989826336503029 0.3259371817111969 0.022600263357162476 0.26798534393310547 -0.1600392907857895 0.19313867390155792 0.1776336133480072 0.028853846713900566 0.058447469025850296 0.1501970887184143 -0.13048459589481354 -0.07365932315587997 0.11967414617538452 -0.10804451256990433 0.05680172145366669 0.4606997072696686 0.02277960255742073 0.0710313692688942 0.026174962520599365 -0.33016833662986755 0.09775551408529282 0.02618415839970112 -0.019748065620660782 1.0132029056549072 -0.11195378750562668 -0.06574643403291702 -0.06859930604696274 -0.11455383151769638 0.385701984167099 -0.08756250888109207 -0.19005511701107025 -0.09478766471147537 0.050057753920555115 0.26496899127960205 0.08728639781475067 -0.15044772624969482 -0.03830883279442787 -0.11528204381465912 -0.08195021748542786 -0.4321655035018921 0.2103860080242157 0.21630510687828064 0.183390811085701 -0.02315354347229004 -0.2857077717781067 -0.014345518313348293 -0.2622023820877075 0.03626687079668045 0.06337200850248337 0.03709375858306885 -0.4014573097229004 -0.11025051772594452 0.02283594198524952 -0.05488831177353859 0.11991707980632782 -0.3992858827114105 -0.10168404132127762 0.17000192403793335 -4.300431728363037 -0.07490063458681107 -0.150498628616333 -0.06046897917985916 0.024947168305516243 0.17649401724338531 0.06573807448148727 -0.08441068977117538 0.00029837017063982785 0.060751773416996 -0.1693684309720993 0.23099415004253387 -0.005536372773349285 -0.040645502507686615 0.05071946233510971 -0.024074748158454895 -0.4462922215461731 0.12161371856927872 -0.09844577312469482
0.004606614820659161 -0.01842604950070381 0.013345664367079735 -0.14788918197155 -0.05283009260892868 0.004320831503719091 0.02511163242161274 0.003216699231415987 0.13959963619709015 0.08877798914909363 0.2602468430995941 -0.796248733997345 0.02228180319070816 0.08992525935173035 0.01836976408958435 0.34691402316093445 0.07373230159282684 -0.02066357247531414 0.14787326753139496 -0.03552946820855141 0.1875079870223999 0.047939859330654144 -0.161168172955513 -0.4681742489337921 0.45278671383857727 -0.5420892238616943 0.07798643410205841 -0.20577089488506317 0.04815948009490967 0.019066540524363518 0.04881208762526512 -0.1446978598833084 -0.024566378444433212 -0.1843944787979126 -0.025625813752412796 0.07144538313150406 -0.11956259608268738 -0.0018180215265601873 0.6288542151451111 -0.0236656554043293 -0.08080272376537323 0.12545156478881836 -0.032736774533987045 -0.017265331000089645 -0.027664925903081894 0.03752755746245384 0.06526237726211548 -0.27097365260124207 0.07342498749494553 -0.009322564117610455 0.10187599062919617 0.1603287309408188 0.48896315693855286 0.4945893883705139 -0.056769825518131256 0.05174720287322998 0.0202929750084877 -0.012562000192701817 0.8313550353050232 0.11834850162267685 -0.0933280810713768 -0.28904128074645996 -0.006253780331462622 0.36561939120292664 0.058644216507673264 0.10224741697311401 -0.05921602621674538 -3.020103931427002 0.10772126168012619 0.04150904342532158 -0.2168215662240982 -0.004996000323444605 0.04827861487865448 -0.050188545137643814 -0.04532702639698982 -1.5795530080795288 -0.2947465181350708 0.09469116479158401 -0.11966082453727722 -0.10683200508356094 0.17214486002922058 0.10630909353494644 -0.015156364999711514 0.10247436165809631 -0.008873256854712963 0.0382014699280262 -0.05127229541540146 0.4641754627227783 0.10927333682775497 0.04500915855169296 0.01050088182091713 -0.027237625792622566 -0.14655949175357819 0.21364523470401764 -0.2625686228275299 0.06903132051229477 -0.2320910096168518 -0.22890251874923706 0.10493667423725128 -0.06686542928218842 -0.05978408455848694 -0.057947974652051926 -0.031019264832139015 0.041742850095033646 -0.07683365792036057 0.27091607451438904 -0.6712638139724731 -0.09343768656253815 0.3162555992603302 -0.01952904462814331 -0.9594475030899048 -0.11680784076452255 -0.08977735787630081 0.0006139914621599019 0.10920945554971695 -0.3879680037498474 -0.004889868665486574 -0.04187905788421631 -0.05334823206067085 -0.14445407688617706 -0.18898150324821472 -0.15648221969604492 0.014305771328508854 -0.1627432405948639 0.06802454590797424 0.05344199016690254 0.050189971923828125 0.020456647500395775 0.03264014050364494 0.037306033074855804 0.2903716266155243 0.006062682252377272 -0.0015894857933744788 -0.2133672684431076 -0.17510443925857544 -0.29001104831695557 -0.04341748356819153 -0.021070729941129684 -0.04190380871295929 -0.10989473760128021 -0.04629623517394066 0.011013404466211796 0.07244937121868134 -0.04723716527223587 -0.263027161359787 0.2771117389202118 -0.11824114620685577 -0.042011115700006485 -5.409163475036621 0.14748415350914001 -0.023155272006988525 -0.059859272092580795 0.5310295820236206 -0.011729562655091286 -0.12073338031768799 0.012016012333333492 0.09603318572044373 -0.1515427976846695 -0.023828843608498573 -0.040830694139003754 -0.06581924110651016 -0.06324733793735504 -0.04754600301384926 -0.2573263347148895 -5.096490859985352 -0.18785126507282257 0.0008306388044729829 -0.2674996256828308 -0.04831444472074509 0.021767443045973778 -0.38637635111808777 0.004469606559723616 0.13650432229042053 -0.08537580817937851 -0.45572203397750854 -0.6213739514350891 -0.005102578084915876 -0.08432760834693909 -0.20377737283706665 -0.04526636376976967 0.01976853422820568 0.1140032485127449 -0.3774527609348297 -0.22469709813594818 0.3377644121646881 -0.2492891103029251 -0.13314971327781677 -0.010516033507883549 0.1181948333978653 0.11406589299440384 -0.04908573254942894 0.11223571747541428 -0.15212401747703552 0.026549622416496277 -0.1690751165151596 0.03089083544909954 0.08896435052156448 0.052750878036022186 -0.11442790925502777 -0.06047232076525688 -0.009041376411914825 0.008195532485842705 0.1288537085056305 -0.017963126301765442 0.0002398335054749623 -0.049404215067625046 0.08245279639959335 0.13580258190631866 0.5137864351272583 -0.2660359740257263 -0.18676070868968964 0.0752129852771759 0.20389537513256073 -0.027471428737044334 -0.0038454497698694468 0.014537119306623936 0.4985019564628601 -0.044120267033576965 -0.37351977825164795 0.31457874178886414 0.1796940565109253 0.288343220949173 -0.05889449268579483 -0.21358661353588104 -0.03365180641412735 0.5036686062812805 0.13243256509304047 -0.02975306287407875 -0.055412657558918 0.37088263034820557 -0.07542826235294342 -0.03908943012356758 -0.3294425904750824 -0.13137014210224152 -0.24617326259613037 0.08252547681331635 0.03967565670609474 -4.523332118988037 -0.06591996550559998 0.45394596457481384 0.13511671125888824 0.14648175239562988 -0.6527559757232666 0.034234434366226196 0.07541757822036743 -0.1849011927843094 -0.1578185260295868 0.12971538305282593 0.05703594908118248 0.20087102055549622 -0.08119284361600876 0.057294875383377075 0.07011813670396805 -0.35307520627975464 0.0006449224893003702 -0.109743133187294
-0.04026893898844719 -0.11166001111268997 0.05263339355587959 -0.10275425761938095 -0.09145914763212204 0.032824400812387466 -0.09052066504955292 0.04408217966556549 -0.24232043325901031 0.24795666337013245 0.5646618604660034 0.15505383908748627 -1.2081652879714966 -5.463457107543945 0.0633544996380806 -0.18099269270896912 0.041921939700841904 0.026332633569836617 -0.017533544450998306 0.14931996166706085 -1.3970513343811035 0.03112075664103031 -0.16984280943870544 0.24658839404582977 1.328697919845581 0.08205367624759674 0.3386983275413513 -2.5862557888031006 -0.19822749495506287 -0.015946168452501297 0.04213692247867584 -0.5473043322563171 0.21815763413906097 0.04259907081723213 -0.33658307790756226 -0.19605349004268646 -0.16761696338653564 -0.3787943124771118 0.1731642335653305 -0.016097551211714745 -0.07189545780420303 -0.4048251807689667 -0.0035026404075324535 0.14780466258525848 0.14952193200588226 -0.16561199724674225 -0.03399106487631798 0.4803982377052307 -0.5009592175483704 -0.023489685729146004 0.025297418236732483 0.011468417011201382 0.5648902654647827 -1.2383531332015991 -0.3271990120410919 0.4841192960739136 -0.08021967113018036 -0.0070081655867397785 0.317539781332016 0.1303417682647705 -0.8842928409576416 0.45262137055397034 -0.09618459641933441 0.13281995058059692 -0.002754594199359417 0.05834059789776802 1.678992509841919 -2.035069465637207 0.4100952446460724 -0.1490030735731125 -0.0605754479765892 0.11420561373233795 0.048342421650886536 0.00860851351171732 -0.29289710521698 -2.628033399581909 0.2601439952850342 -0.9982345104217529 -0.22375041246414185 -0.03398975729942322 0.6197627782821655 -0.15821759402751923 0.2508224844932556 0.0468452014029026 -0.009990254417061806 -0.41193142533302307 0.014321252703666687 1.2453501224517822 0.10669497400522232 0.12767255306243896 2.2599101066589355 -0.013742895796895027 -0.554236888885498 0.18931704759597778 -1.5087345838546753 -0.21016398072242737 -0.1387280970811844 -0.6391702890396118 -0.3351154625415802 -0.15983536839485168 0.054259657859802246 -0.16840682923793793 0.2079540342092514 2.2757363319396973 -0.14733488857746124 0.2657173275947571 -0.3161112368106842 0.18828019499778748 -0.2948419749736786 -0.09170364588499069 0.7542120814323425 0.1336759328842163 0.03681601956486702 -0.0744432583451271 -0.268561989068985 -2.3201863765716553 0.12188803404569626 -0.043124258518218994 -0.45070064067840576 0.010744704864919186 0.0021175574511289597 0.05295857414603233 0.08836492896080017 0.06456632912158966 -0.0231211818754673 -0.5528567433357239 -0.039548590779304504 -0.03767939656972885 0.03392927721142769 0.01055943127721548 -8.213929176330566 0.022465752437710762 -0.052943311631679535 0.31264710426330566 -2.773465156555176 -0.03770989179611206 -0.2993471324443817 -0.059037476778030396 -0.33367297053337097 0.3346140682697296 -0.7030408382415771 -0.4754675030708313 1.1853042840957642 0.04212115332484245 -0.08994892984628677 1.9811283349990845 -0.5298218727111816 0.010493622161448002 -0.9757288098335266 0.0023425209801644087 -0.01503711100667715 -0.06921111047267914 -4.140432834625244 -0.12538614869117737 -0.12692175805568695 0.07650632411241531 -0.6968259811401367 -0.3762340843677521 -1.7226110696792603 0.05745096877217293 -0.39158862829208374 0.01274686399847269 -0.08499795943498611 -0.39481696486473083 -0.1130550429224968 -0.2406650334596634 0.008741607889533043 0.23566581308841705 -0.08760685473680496 0.10188289731740952 -0.047335099428892136 0.14297884702682495 0.08067945390939713 -0.06679511815309525 -0.6922301054000854 -0.7505108118057251 -0.22042714059352875 0.012148546986281872 0.18712876737117767 0.08993282914161682 -0.007540895137935877 -0.006147550418972969 -0.7688617706298828 0.6431036591529846 1.1254334449768066 -0.307122141122818 0.01821833848953247 0.05120406299829483 -0.524882435798645 0.08832453936338425 0.010097941383719444 -0.11564483493566513 -0.08731400966644287 -0.06469102948904037 0.08456466346979141 -0.09322459250688553 -0.040220968425273895 0.04305493086576462 0.2323702573776245 0.300224632024765 -0.05836272984743118 0.008589203469455242 0.6222795248031616 0.03181581571698189 -0.024533001706004143 -0.049921195954084396 -0.4500277042388916 0.5335811972618103 1.515920877456665 0.09115961939096451 0.19084098935127258 0.037104569375514984 -0.20654387772083282 -0.010557342320680618 -0.10640736669301987 0.1614500880241394 -1.383634090423584 0.062128931283950806 -3.824706792831421 -0.21218004822731018 -0.6287476420402527 -0.4872031807899475 -0.07416826486587524 -0.08311857283115387 0.1441110223531723 0.23966814577579498 0.020544053986668587 -0.10898686200380325 -0.08591460436582565 0.3349798619747162 0.014591713435947895 -0.10460077971220016 0.08466082811355591 -0.0792812779545784 0.07615078240633011 -0.37429240345954895 -0.1681857854127884 -4.959794998168945 0.025889966636896133 0.3492223620414734 -0.2864329516887665 -0.19080950319766998 -0.8101506233215332 -0.01092040166258812 -0.7159952521324158 -0.25241225957870483 1.290476679801941 0.19324587285518646 -0.15694808959960938 -0.28753361105918884 0.20996181666851044 -0.04523751139640808 -0.06953851133584976 0.11438364535570145 0.28847235441207886 -0.08383759111166
0.05886503681540489 0.3572569787502289 -0.47646990418434143 -0.046146370470523834 0.2047618180513382 -0.10850095003843307 -0.03289174661040306 0.028020648285746574 1.6288725137710571 0.12563753128051758 0.3790258467197418 -0.47125858068466187 0.015751022845506668 0.14711184799671173 -0.1144069954752922 0.009609735570847988 0.0021513968240469694 0.4456166923046112 0.9610886573791504 0.27699726819992065 0.3551199436187744 -0.010108988732099533 -0.2283121645450592 -0.3278472125530243 -0.15694788098335266 0.4473634660243988 0.5055280923843384 0.3632534444332123 -0.7928194403648376 -0.03668197989463806 -0.019675003364682198 -0.3024962842464447 -0.15791045129299164 0.017361784353852272 0.05081506073474884 -0.5404077172279358 0.007231350988149643 -0.741187334060669 0.6482992768287659 -0.019813327118754387 -0.08098515123128891 0.02243056334555149 0.2032298743724823 0.6757544279098511 -0.20181621611118317 0.0033441355917602777 -0.10017175227403641 -0.65842604637146 0.21081998944282532 -0.010051012970507145 -0.006350008770823479 0.041075047105550766 -0.09320928156375885 -2.430818557739258 -4.246819496154785 -0.9307247400283813 0.10880318284034729 -0.0019584037363529205 0.3007957935333252 0.09092508256435394 0.975103497505188 0.4093460142612457 0.08894291520118713 -0.11158955842256546 0.04045087471604347 -0.018710076808929443 2.9593138694763184 -0.5373832583427429 -2.057918071746826 -0.02261383645236492 0.018787911161780357 -0.014472459442913532 -0.10896770656108856 0.06795347481966019 -3.484577178955078 -1.9961405992507935 0.5465560555458069 4.300608158111572 -0.3311566114425659 0.1732693910598755 -0.14748653769493103 -4.1022233963012695 0.021570561453700066 0.08218564093112946 -0.06655516475439072 0.9848921298980713 0.06833898276090622 0.2094302773475647 0.024653365835547447 -0.079341359436512 0.716458797454834 0.11934661865234375 0.19712910056114197 0.11289520561695099 -0.15927985310554504 0.7823122143745422 0.10828661173582077 -0.05556227266788483 -0.4655875265598297 -0.19281005859375 -0.04148763418197632 -0.0037183307576924562 0.1954142451286316 2.3815598487854004 -0.03550202399492264 0.1033056303858757 0.11010216921567917 0.011003829538822174 -0.11221857368946075 -0.005134697537869215 1.9603854417800903 -0.14920969307422638 0.07619641721248627 -0.10707911849021912 -4.410804271697998 -1.802082896232605 0.2947554290294647 -1.1809115409851074 0.12977632880210876 0.0038168970495462418 0.12173112481832504 0.13418185710906982 -0.09363258630037308 0.014915644191205502 0.0852876752614975 0.34094783663749695 -0.5037856698036194 -0.1554136872291565 0.03233464062213898 0.048709433525800705 -0.536433756351471 -0.1478515863418579 -0.08428113162517548 -0.33332595229148865 -0.137711301445961 0.17926014959812164 -0.047148142009973526 -0.08544185012578964 0.18740901350975037 -0.21219193935394287 0.8879935145378113 0.2545866370201111 -0.10113344341516495 -0.03923873230814934 -0.07516264170408249 0.7655526399612427 0.11394211649894714 -0.12772345542907715 -5.671731948852539 0.026726335287094116 0.05420902371406555 -0.16038678586483002 0.635308027267456 -0.5097373127937317 0.02764829806983471 -0.11286233365535736 1.9895670413970947 1.1169257164001465 -2.5014488697052 0.049952853471040726 -0.8612979054450989 0.034328069537878036 -0.21092018485069275 -0.1677640974521637 -0.21958568692207336 0.05468819662928581 0.00834923516958952 0.09426236152648926 0.14112724363803864 0.016931958496570587 -0.4016615152359009 -0.003434110200032592 0.13463379442691803 -0.013045820407569408 -0.44795477390289307 0.1142607107758522 -0.01077616959810257 -0.2839674651622772 -0.7430182695388794 -0.3163028359413147 0.019625235348939896 0.03692903369665146 -0.22436270117759705 0.5197922587394714 0.0354597307741642 0.22269423305988312 0.018342135474085808 -0.035672351717948914 -1.105020523071289 0.04964530095458031 -0.01966424286365509 0.38863104581832886 -0.22549445927143097 -0.3106328248977661 -0.18480245769023895 -0.2798093259334564 0.12930740416049957 -0.02505508065223694 0.20890764892101288 -0.3092684745788574 -0.0702458992600441 -0.05014308914542198 -0.548816978931427 -0.23820780217647552 -0.045278362929821014 -0.05928443744778633 -0.03605496138334274 0.7135437726974487 0.2671271562576294 -0.2913419008255005 0.0699644535779953 -0.13333278894424438 -0.09645102918148041 0.020346874371170998 -0.21286621689796448 0.12266521900892258 2.0859944820404053 -0.174599751830101 -0.6957829594612122 0.06389947235584259 -0.2063257396221161 -0.4972173869609833 -0.10074175149202347 0.062299057841300964 3.265562057495117 0.4535257816314697 0.058874089270830154 0.01424360554665327 -0.06216110661625862 -0.06701907515525818 0.020433705300092697 -0.00836875569075346 -0.019362416118383408 -0.22405977547168732 0.19003978371620178 0.24042253196239471 -0.9085016846656799 -2.1013669967651367 -0.09819014370441437 0.5270812511444092 -0.23603428900241852 0.08099496364593506 -0.6090407371520996 -0.10829871892929077 -0.49132654070854187 0.05116572603583336 -1.799782395362854 0.6041690111160278 -0.047010764479637146 -0.03332796320319176 -0.14877288043498993 -0.5773200392723083 0.046347860246896744 -0.046296391636133194 0.6757215261459351 0.03228580579161644
-0.16772951185703278 0.025463396683335304 0.033542532473802567 -0.01810416206717491 0.21120887994766235 -0.03609909489750862 3.181926965713501 0.05288246273994446 -0.012097354978322983 0.714648962020874 -0.26768842339515686 -0.09855473786592484 -0.011395055800676346 0.1651524156332016 -0.033263154327869415 -1.0987669229507446 0.10325954854488373 -0.024269314482808113 -0.38201695680618286 -0.31798842549324036 0.4793572723865509 0.0024574745912104845 -0.8632331490516663 -0.014065990224480629 0.04367488995194435 0.2042967826128006 0.05300237610936165 0.22824375331401825 0.08485564589500427 0.7047258019447327 -0.12460453808307648 0.1950627863407135 0.01246498804539442 0.5592150688171387 -0.607481837272644 -0.15425363183021545 -0.20899182558059692 0.3689024746417999 0.4667234420776367 2.7042644023895264 0.08850296586751938 -0.19247932732105255 -0.10039626061916351 -0.014541138894855976 0.0758819505572319 0.000315591023536399 -0.0317593589425087 -0.9891277551651001 -0.009875989519059658 0.1311561018228531 0.07392853498458862 -1.7782979011535645 0.4315102994441986 -0.15229491889476776 0.052678026258945465 0.022526627406477928 0.006007768213748932 0.03688327595591545 -0.03810121864080429 -0.13439762592315674 -0.14824815094470978 -0.0814051702618599 -0.03200250491499901 0.003348153317347169 0.02748512290418148 0.4797157347202301 0.021898146718740463 -1.8964170217514038 0.02351338043808937 0.5199893116950989 -0.16285620629787445 -0.007061971351504326 0.12459757924079895 -3.142320156097412 0.05247936025261879 0.10820133239030838 0.18719536066055298 0.05320320650935173 -4.113874912261963 -0.1124214306473732 0.07002274692058563 0.010845452547073364 -0.16978605091571808 -1.3914066553115845 0.011612181551754475 -0.08680747449398041 -0.07551871240139008 0.010682294145226479 -0.13086742162704468 -0.0529237799346447 -0.05584053695201874 0.23957425355911255 0.26232659816741943 -0.0035397668834775686 -0.5866832733154297 0.23740653693675995 -0.5599467754364014 -0.09430551528930664 0.6773951053619385 -0.11195158213376999 -0.034178726375103 -0.0483090877532959 0.4103982150554657 0.019860638305544853 0.04094719514250755 0.12149299681186676 -0.20346549153327942 -3.779353380203247 -0.18875207006931305 -0.03645254671573639 -0.0721307024359703 0.0672776848077774 0.08707372099161148 0.0053100502118468285 0.10167402774095535 0.06471522897481918 0.5443784594535828 -0.01364369411021471 0.0452551394701004 -0.15844693779945374 -0.08231572061777115 -0.06318338215351105 -2.182518243789673 -3.6557483673095703 -0.0014858186477795243 -0.040597785264253616 0.1310417652130127 0.7300467491149902 -1.6205408573150635 0.029192665591835976 -0.22793352603912354 0.039014410227537155 0.07019500434398651 -0.4552692472934723 0.07013808190822601 -0.04842371493577957 0.018974076956510544 0.011725563555955887 0.04470009729266167 -0.41163238883018494 -0.049855757504701614 -0.11322339624166489 -0.00887074414640665 0.08207978308200836 0.4485982060432434 -0.23383954167366028 -0.19164058566093445 0.07244575023651123 0.3920792043209076 0.26065683364868164 0.01919199340045452 0.020107854157686234 0.0027119533624500036 -0.30556195974349976 -1.5481053590774536 1.6679425239562988 0.05570513755083084 -0.03149754926562309 0.05967060476541519 -0.5588292479515076 -0.44753125309944153 -0.09756212681531906 -0.12270339578390121 1.5086332559585571 0.3521961569786072 -0.44200295209884644 0.1256008744239807 0.21991737186908722 0.08175177127122879 0.020989438518881798 -0.46422919631004333 -1.6978979110717773 0.4945778250694275 -0.10232696682214737 -0.3546028435230255 -0.16669954359531403 -0.0668075829744339 0.9709960222244263 0.018212806433439255 -0.04236098378896713 -0.11922207474708557 -0.00595138082280755 -0.45343050360679626 0.007115351967513561 0.03167729079723358 -0.5282211899757385 1.9842796325683594 0.061162371188402176 0.16691558063030243 -0.006488279439508915 0.04049893096089363 0.36540094017982483 -0.08905982971191406 0.00734258396551013 0.4015952944755554 -0.025763889774680138 0.14768370985984802 1.4976303577423096 0.017783701419830322 0.19832004606723785 -0.09764690697193146 -0.038390472531318665 0.1115964949131012 -0.060755226761102676 -0.020401213318109512 -0.06067010760307312 0.10381438583135605 0.15290574729442596 0.556280255317688 0.3161158263683319 -4.526895999908447 -0.03737657144665718 0.1303366869688034 0.2512069642543793 0.05452641844749451 0.16684535145759583 0.004386303015053272 0.20633773505687714 0.2829491198062897 0.18151970207691193 -2.9893534183502197 -0.050362031906843185 -0.002071214374154806 -1.1611539125442505 0.014768878929316998 0.5030258893966675 -0.09593360126018524 0.009856673888862133 -0.009940545074641705 0.0071602207608520985 0.10404539108276367 -0.03172416612505913 1.148289442062378 -0.30613985657691956 -1.5684634447097778 0.23946750164031982 0.020340202376246452 0.1986815184354782 -0.04361811280250549 0.4938698410987854 -0.6536505818367004 0.5864044427871704 -0.2265028953552246 0.017975350841879845 -0.024021387100219727 0.08245056867599487 -0.3224794864654541 0.2716715931892395 -0.055293578654527664 0.3339097499847412 0.07869922369718552 -0.03682946786284447 -0.13994048535823822 -0.38296112418174744 0.2393607646226883 -0.005885799415409565
0.10122385621070862 0.031856782734394073 -0.024699263274669647 0.22310490906238556 0.22440603375434875 0.026360034942626953 -0.1768559068441391 0.05917641893029213 6.307036528596655e-05 -4.9860711097717285 0.10518156737089157 -0.9529067277908325 -0.06784190982580185 -0.10078981518745422 -0.14908535778522491 -0.711563766002655 -0.09396186470985413 -0.21642708778381348 0.20108488202095032 0.06554418802261353 -0.2890596389770508 -0.02824372984468937 -0.20888809859752655 0.08090194314718246 -0.05185215547680855 -0.44472330808639526 0.1190938726067543 -0.18005044758319855 0.014412094838917255 0.04985477402806282 -0.20775702595710754 0.2742893099784851 -0.025468120351433754 -0.6534868478775024 0.08943717181682587 -6.033600807189941 -0.2502177655696869 0.051208965480327606 0.8206378817558289 0.06879515200853348 -0.2672646641731262 -0.20559057593345642 -0.0836595818400383 0.04140795022249222 0.028424609452486038 0.07710549980401993 -0.15491312742233276 -0.081423319876194 -0.1031184047460556 0.046030931174755096 0.07582457363605499 -0.3843255341053009 0.4149194061756134 0.04244315251708031 -0.084854856133461 -0.012357961386442184 0.045821864157915115 0.019997993484139442 0.2351294904947281 -0.019099295139312744 -0.1852644681930542 0.008057555183768272 -0.13842077553272247 -0.026610149070620537 -0.012383829802274704 -1.1400245428085327 0.040495797991752625 -2.8752238750457764 0.10395277291536331 0.1711377650499344 0.035705048590898514 -0.07053586095571518 -0.13227450847625732 -0.12613853812217712 -0.10923624038696289 0.09289756417274475 -0.07381221652030945 -0.10297119617462158 0.23740129172801971 -0.05897879973053932 -0.021291591227054596 0.07877033203840256 -0.11085943877696991 -0.3423685133457184 -0.0685548484325409 -0.002915804972872138 -0.08921028673648834 0.2519723176956177 -0.1932927668094635 0.06466300040483475 -0.027309495955705643 0.10193784534931183 0.14323152601718903 -0.27060484886169434 -0.014866111800074577 0.07085123658180237 0.0588357076048851 -0.00016675598453730345 -0.27129414677619934 -0.041572265326976776 -0.07858674228191376 0.00250630103982985 -4.915639877319336 -0.0323772206902504 0.037588488310575485 -0.35054799914360046 -0.347660630941391 -0.14969800412654877 0.11165478825569153 -0.043628592044115067 -0.010090016759932041 -0.09628018736839294 0.03249817714095116 -0.07153414189815521 0.002725245663896203 0.06640854477882385 -0.5725917816162109 -0.03401481732726097 -0.11738760769367218 -0.13884074985980988 0.29972216486930847 -0.14450719952583313 -0.5555596351623535 -0.38191142678260803 -0.019832005724310875 -0.07403288036584854 -0.04549214243888855 -0.2164316326379776 -0.8741998672485352 -0.06876257807016373 -0.11358002573251724 0.0006029388750903308 -0.034098029136657715 -0.24679169058799744 0.1896415501832962 -0.6655339002609253 0.00043435569386929274 -0.04679340496659279 -0.02643599547445774 -0.2720593512058258 -0.04799184203147888 -0.13779400289058685 -0.012633946724236012 -0.07098838686943054 0.08139628916978836 0.05617048218846321 -0.11687573790550232 0.024368932470679283 -0.004573754966259003 -0.11637802422046661 -0.07951458543539047 0.03283098340034485 -0.05322874337434769 -0.09201551973819733 -0.5186777710914612 0.01487461943179369 0.01750248670578003 -0.08179908990859985 0.01297740451991558 0.0488300696015358 -0.471802294254303 -0.0748676285147667 -0.14156396687030792 0.027841106057167053 -0.1464690864086151 0.7663366198539734 -0.008886473253369331 -0.10787323862314224 0.10343097150325775 -0.009039082564413548 -0.5684825778007507 -0.050479911267757416 0.2934825122356415 -0.0575532391667366 -0.4695352613925934 -0.2974621653556824 -0.06501683592796326 -0.09071555733680725 -0.002138548530638218 -0.09228881448507309 -0.4657306671142578 0.0809289887547493 -0.4107171893119812 0.1053396612405777 -0.01105199009180069 -0.4311003088951111 -0.24209363758563995 0.02896144613623619 0.007932612672448158 -0.05989662557840347 -0.026879088953137398 0.6475280523300171 -0.09775211662054062 -0.09519841521978378 -0.25865018367767334 -0.008898175321519375 0.4982421398162842 0.5050305724143982 -0.21720542013645172 0.16749036312103271 -0.10211919248104095 -0.028253478929400444 0.07144597172737122 -0.04698922485113144 -0.04993751645088196 -0.2436257153749466 0.03951766714453697 0.008589236065745354 0.43518495559692383 -0.5356659293174744 0.001459592254832387 0.07712322473526001 -0.19693516194820404 0.23653869330883026 -0.2762909233570099 -0.011314895935356617 -0.03503410145640373 -0.10841184854507446 -0.18599724769592285 0.1788758635520935 -2.2482657432556152 0.23721513152122498 0.03889831528067589 -0.23898009955883026 -0.023051034659147263 0.6807758808135986 0.19900208711624146 -0.02386082522571087 -0.05575067549943924 -0.01851818896830082 -0.025410246104002 -0.06924500316381454 0.21098493039608002 0.09934689104557037 -0.3749019205570221 0.30111727118492126 0.05417869985103607 -0.08983352780342102 -0.06480876356363297 0.7451218962669373 0.2893533408641815 0.24354565143585205 -0.5019134283065796 0.08435272425413132 0.1374751329421997 0.02603425644338131 0.019927743822336197 0.10348070412874222 -0.006050189957022667 -0.001004707650281489 0.3216528296470642 -0.04670274630188942 0.22097912430763245 -0.41298386454582214 -0.015137926675379276 0.0018698984058573842
-0.2927210330963135 0.10525874048471451 -0.03819600120186806 0.06870812177658081 0.16522344946861267 -0.047338634729385376 -0.34410610795021057 -0.11782018840312958 -0.09323578327894211 -0.30618488788604736 -0.20596514642238617 -0.017433293163776398 0.048112958669662476 0.06333406269550323 -0.0786069706082344 0.5464714169502258 -0.06179176643490791 -0.18681514263153076 0.6953629851341248 -4.126577377319336 -0.41777685284614563 0.3125847280025482 0.10373833775520325 0.21239523589611053 0.11834967881441116 -1.06686532497406 -0.27221786975860596 -0.38659507036209106 -0.07552516460418701 -0.41478461027145386 -0.07905474305152893 0.10179057717323303 0.0414685420691967 0.5037357807159424 -0.23024751245975494 -0.9791610240936279 -0.1704811304807663 -0.08312313258647919 -0.7940611839294434 -0.31025275588035583 -0.11822153627872467 0.4216671586036682 -0.18107442557811737 -0.12268581241369247 -0.21375761926174164 -0.1846114695072174 0.05579783022403717 -0.34780097007751465 -0.06299256533384323 0.34611666202545166 0.28688880801200867 0.10962232202291489 0.20379173755645752 -0.012624098919332027 0.022754788398742676 0.07802271097898483 0.02487572841346264 0.029498377814888954 -0.49741891026496887 0.0739598497748375 -0.01352411974221468 0.21268214285373688 0.08362401276826859 -0.17321552336215973 -0.15820854902267456 -2.0328891277313232 0.05664980039000511 -3.152190923690796 0.009937640279531479 0.6011984944343567 0.12967868149280548 0.04816129431128502 -0.1553439497947693 -0.20581689476966858 0.05155615508556366 0.2964359521865845 0.11212615668773651 0.007465078961104155 0.017338844016194344 0.13067714869976044 -0.08354941755533218 0.019810428842902184 -0.13132761418819427 0.883988082408905 0.008293687365949154 -0.051911402493715286 -0.1028655543923378 -0.12609106302261353 0.018792923539876938 0.19073550403118134 -0.04146221652626991 -0.2671048045158386 -0.051908884197473526 -0.18480852246284485 -0.05562513694167137 -0.16346965730190277 0.18797481060028076 -0.14420869946479797 -0.10896739363670349 -0.19036944210529327 -0.030950136482715607 -0.060821495950222015 -0.3225165009498596 -0.33368760347366333 -0.017155302688479424 -2.9547479152679443 -1.2288333177566528 0.040506474673748016 0.13281016051769257 -0.005524114239960909 0.03687838464975357 -0.21130898594856262 -0.12675264477729797 -0.08058236539363861 -0.0025016104336827993 0.32051849365234375 -0.3272208571434021 -0.018468843773007393 0.07088839262723923 -0.14425884187221527 -0.13622722029685974 0.024666117504239082 0.3736841082572937 0.10904309898614883 0.18269005417823792 0.07861310243606567 0.047237128019332886 -0.012953920289874077 0.3524627089500427 -0.07346273213624954 0.13091225922107697 -0.047501206398010254 -0.0012336155632510781 -0.036147430539131165 0.25089067220687866 -0.2900743782520294 0.002559384796768427 -0.10814908146858215 -0.07466941326856613 0.2954930365085602 0.014608205296099186 0.1403994858264923 0.005273963324725628 -0.05057985335588455 0.3002028465270996 -0.6090021133422852 -0.024437012150883675 -0.025067703798413277 -0.17363139986991882 0.3679957389831543 -0.011795828118920326 -0.11068614572286606 -0.12862761318683624 0.2222229391336441 -0.19973614811897278 -0.3774421513080597 0.018101831898093224 -0.07263068854808807 0.31630441546440125 0.09180697798728943 0.22879838943481445 -0.1076071634888649 -0.12449023872613907 -0.029666367918252945 -0.06518877297639847 -0.027138806879520416 -0.06753530353307724 -0.1953776627779007 -0.06080952286720276 -0.027176761999726295 0.833450436592102 -0.15003983676433563 0.21921347081661224 0.021161429584026337 0.7511633038520813 -0.08605150133371353 -0.0009000622085295618 0.10691076517105103 0.18653830885887146 -0.03442566469311714 0.3219720423221588 0.11108802258968353 0.9025571346282959 -0.22778508067131042 -0.040825918316841125 -0.16293318569660187 -0.35742273926734924 0.1107044443488121 -0.16491033136844635 -0.21686209738254547 0.009554220363497734 -0.25683853030204773 -0.05482029169797897 0.07617950439453125 0.5894225835800171 -0.07818485796451569 -7.156111717224121 -0.9037045836448669 0.0013168234145268798 0.325057715177536 0.11981983482837677 0.06984914839267731 0.2712116837501526 -0.06693107634782791 -0.07229067385196686 -0.12605386972427368 -0.2595767378807068 0.5646699666976929 -0.2559512257575989 -0.17369385063648224 -0.010871131904423237 -0.0029529964085668325 0.542946457862854 0.3754963278770447 -0.14679571986198425 -0.15619924664497375 -0.14896059036254883 0.08111563324928284 0.10017746686935425 0.068636454641819 -0.6119482517242432 -0.18453390896320343 0.004519874230027199 0.12666848301887512 -0.10260303318500519 -0.18817009031772614 -0.20108085870742798 0.006030261516571045 -0.0038911786396056414 -0.016977809369564056 0.006606135983020067 -0.05774807184934616 -0.3654257357120514 0.4333471357822418 -0.11182361841201782 -0.02052144706249237 0.37692955136299133 0.07490430772304535 -0.11853165179491043 -0.8044866919517517 0.08620785176753998 -0.8786676526069641 0.6203770041465759 0.10222207009792328 -0.03582632169127464 -0.09585938602685928 0.12281283736228943 -0.14655980467796326 -0.08818790316581726 0.029409442096948624 0.08779475092887878 -0.08203393965959549 -0.23705913126468658 -0.7994592189788818 0.19421418011188507 -0.09653200954198837
